<?xml version="1.0"?>
<opencv_storage>
<annParams type_id="opencv-ml-ann-mlp">
  <layer_sizes type_id="opencv-matrix">
    <rows>1</rows>
    <cols>3</cols>
    <dt>i</dt>
    <data>
      265 20 34</data></layer_sizes>
  <activation_function>SIGMOID_SYM</activation_function>
  <f_param1>1.</f_param1>
  <f_param2>1.</f_param2>
  <min_val>-9.4999999999999996e-001</min_val>
  <max_val>9.4999999999999996e-001</max_val>
  <min_val1>-9.7999999999999998e-001</min_val1>
  <max_val1>9.7999999999999998e-001</max_val1>
  <training_params>
    <train_method>BACKPROP</train_method>
    <dw_scale>1.0000000000000001e-001</dw_scale>
    <moment_scale>1.0000000000000001e-001</moment_scale>
    <term_criteria><epsilon>9.9999997764825821e-003</epsilon>
      <iterations>2000</iterations></term_criteria></training_params>
  <input_scale>
    1. 0. 1. 0. 1.8899875585576545e+001 -6.2490612211006900e-002
    4.7015546096590217e+000 -3.2632636664138892e-001
    2.8353689347234678e+000 -1.1918399544693588e+000
    2.9111107924515873e+000 -1.4188681025657852e+000
    3.1003514149625273e+000 -2.0353434200123721e+000
    3.6322225523534186e+000 -2.7307559951198868e+000
    4.0035009459942534e+000 -3.0956347771188679e+000
    4.2682526450551102e+000 -3.0037346224070602e+000
    4.3120826329135937e+000 -2.9766750587998141e+000
    4.1850629354263642e+000 -3.0404725017946252e+000
    3.6333746624097278e+000 -2.6336965057360362e+000
    3.0775084672287663e+000 -1.9227923221581342e+000
    2.8798016836679619e+000 -1.4166297445269309e+000
    2.7903027891157541e+000 -1.1476256500345430e+000
    5.1125141353635124e+000 -2.8368896842198577e-001
    1.8670743658397306e+001 -5.8660325593942533e-002 1. 0. 1. 0.
    2.7078967109612080e+000 -7.9857242657255811e-001
    3.1454193280198708e+000 -1.7616359133425330e+000
    3.9827869753241902e+000 -2.7906039935005933e+000
    4.2210706981974369e+000 -3.0979725839428798e+000
    4.3256999669894061e+000 -2.9969191264208317e+000
    4.5066879776393103e+000 -2.9473194392254980e+000
    4.5962033057028044e+000 -2.9272043197210800e+000
    4.6623654929506761e+000 -2.9944833431738855e+000
    4.5613178828530598e+000 -3.2444155690463288e+000
    4.4978105899201219e+000 -3.2668067666254377e+000
    4.3690053482784128e+000 -3.1089562025714166e+000
    4.3145183073058613e+000 -2.8805119352539474e+000
    4.6077760237723897e+000 -2.8122374597869051e+000
    4.6945990155344735e+000 -2.9298322100379899e+000
    4.7561093307677247e+000 -3.0674912507781622e+000
    4.5690914394465700e+000 -3.0547034287534043e+000
    4.2822981402484528e+000 -2.9554642182740056e+000
    4.1845615125177043e+000 -2.7514162109288960e+000
    3.3613812608939133e+000 -2.0492551955434304e+000
    2.3695241772952884e+000 -1.0871071082606518e+000 1. 0.
    3.8171957940805723e-001 -6.0878676189256284e-002
    3.4483610025630461e-002 -1.7784545254391582e-001
    1.2102359417899201e-002 -4.9432814922194745e-001
    1.2355066037286930e-002 -5.6841436968791581e-001
    1.2314684308792217e-002 -6.5358473525406735e-001
    1.2511912110187725e-002 -6.9816619328433505e-001
    1.2559682420878779e-002 -7.3194537023866357e-001
    1.1911240299653238e-002 -7.0191135648516134e-001
    1.1871518713455344e-002 -6.5192825102463170e-001
    1.2460817762836189e-002 -5.8297387806418000e-001
    1.1698128638844681e-002 -5.4018261697559167e-001
    3.9469352891650843e-002 -1.5147633757878926e-001
    4.0295160661951923e-001 -5.6789409550506750e-002 1. 0. 1. 0.
    4.2027996111340088e-001 -6.0237612619185824e-002
    3.3224493001704047e-002 -2.0569957651055010e-001
    1.2130942136772547e-002 -6.4416319102874520e-001
    1.1629017219828567e-002 -9.5370815937397768e-001
    1.0752000362216756e-002 -1.3473620561623478e+000
    1.1167137247085774e-002 -1.5457964381055789e+000
    1.1037504303198685e-002 -1.5122008401611284e+000
    1.1208115017364181e-002 -1.5282207813023667e+000
    1.1139682252769437e-002 -1.3316286834175315e+000
    1.1921566665727345e-002 -9.1378701476941326e-001
    1.1802614517628578e-002 -6.4968060200239031e-001
    3.6454454395084830e-002 -1.8389756033714397e-001
    4.2719221145359315e-001 -5.6754441018969280e-002 1. 0. 1. 0.
    5.2658863674022216e-001 -4.9791145783934829e-002
    3.2860958487635504e-002 -2.1690985764130438e-001
    1.0821155586355673e-002 -7.5605944062526509e-001
    1.0928956497709469e-002 -1.1710203567518804e+000
    9.9732787741433765e-003 -1.6096728698684297e+000
    1.0249179649077601e-002 -1.6854871003096363e+000
    1.0383990205010424e-002 -1.5916867283994300e+000
    1.0225038558324979e-002 -1.7074621165281905e+000
    1.0107787585261006e-002 -1.6599969345028216e+000
    1.1117484104227917e-002 -1.1637763731367727e+000
    1.0867152585820819e-002 -7.3345475894982937e-001
    3.6077058446445605e-002 -1.9130988323994885e-001
    5.3220546963972803e-001 -4.7774279141806826e-002 1. 0. 1. 0.
    4.7681479010122974e-001 -5.1077107976134122e-002
    3.1172552405061987e-002 -2.1833845203401886e-001
    1.0561964610665397e-002 -7.8200887109283879e-001
    1.1319656551466337e-002 -1.2147156638865722e+000
    9.4269645681476933e-003 -1.4544520064186577e+000
    9.5960649837282929e-003 -1.3563759333164389e+000
    1.0513525109176238e-002 -1.2279023441468517e+000
    9.6059812845700285e-003 -1.3628938653064913e+000
    9.5982114184784521e-003 -1.4763439207797762e+000
    1.0757506006672536e-002 -1.1650166558967696e+000
    1.0508739112528748e-002 -7.9030309017629796e-001
    3.5085459955242392e-002 -1.9424032917172196e-001
    4.6189721549986834e-001 -5.2105101808333443e-002 1. 0. 1. 0.
    4.6999684416665749e-001 -5.0628026301614809e-002
    3.0911911314891783e-002 -2.2255281213273825e-001
    1.0662436814491937e-002 -7.9416011652499041e-001
    1.1397364606169072e-002 -1.2075818141402845e+000
    9.4394849316059432e-003 -1.4379595025884049e+000
    9.6659621481577536e-003 -1.3177002869323109e+000
    1.0214948367716458e-002 -1.0512960775212674e+000
    9.5626301948921379e-003 -1.1469004332338841e+000
    9.5026326554743436e-003 -1.3079057357465855e+000
    1.0687662240697594e-002 -1.0952167490227247e+000
    1.0459452002262401e-002 -8.0973121462757025e-001
    3.4847277407179376e-002 -1.9521565757546747e-001
    4.2125664148548042e-001 -5.2184395444341378e-002 1. 0. 1. 0.
    4.5088630739737617e-001 -5.4100960283168117e-002
    3.1014459445819254e-002 -2.1610823372674834e-001
    1.0393730232853324e-002 -7.7319774030837707e-001
    1.1134791246201085e-002 -1.1658512920644637e+000
    9.4747182760258428e-003 -1.4836212431533404e+000
    9.5623364540957691e-003 -1.4172344008886320e+000
    9.7271813695505912e-003 -1.1235301963994828e+000
    9.2068745532842833e-003 -1.1053456224236085e+000
    9.2200791357373128e-003 -1.1584000382732080e+000
    1.0370307578205628e-002 -9.7232338979892252e-001
    1.0348140984768777e-002 -7.6785869003826612e-001
    3.4877106112219947e-002 -1.9149013167358581e-001
    4.3226699130743246e-001 -5.0961458580229921e-002 1. 0. 1. 0.
    4.7420208327880087e-001 -5.0513447530596382e-002
    3.1912734473618108e-002 -2.1273246517153327e-001
    1.0634416704756001e-002 -8.0013962240506153e-001
    1.1034367872342582e-002 -1.1352456143085097e+000
    9.5638604122362508e-003 -1.5297368973912964e+000
    9.8215247553106906e-003 -1.6385048146472672e+000
    1.0135770009784478e-002 -1.5504543627085670e+000
    9.8126183406894059e-003 -1.5205682708077644e+000
    9.4092224636396545e-003 -1.3376637163478811e+000
    1.0599717643366445e-002 -1.0182421159124158e+000
    1.0712948369032804e-002 -7.6344021827216968e-001
    3.5617187509651586e-002 -1.8978781423455279e-001
    4.2342726436261097e-001 -5.0679505010486049e-002 1. 0. 1. 0.
    4.3668411591507200e-001 -5.1482208758389700e-002
    3.2145232792094136e-002 -2.2478578406679831e-001
    1.0501736034910015e-002 -9.0980165543131719e-001
    1.1262131839909754e-002 -1.1221053028680401e+000
    9.6227842594207337e-003 -1.4605267304958383e+000
    9.9642771836634340e-003 -1.6621767957503626e+000
    1.0199446945216937e-002 -1.6650826030502583e+000
    1.0019267797968971e-002 -1.6649462800541766e+000
    9.7632903796268412e-003 -1.4896233665926049e+000
    1.0846931900812790e-002 -1.1062896846557877e+000
    1.1100133104455269e-002 -7.9167996001754781e-001
    3.6106314728962127e-002 -1.9497626029730086e-001
    4.2325657014318324e-001 -5.1165665570869545e-002 1. 0. 1. 0.
    4.3575716913905721e-001 -5.3198361762039299e-002
    3.2453663596625347e-002 -2.2034891701706336e-001
    1.0264403424677293e-002 -8.4369280561203708e-001
    1.1072590367480361e-002 -1.0523963725065317e+000
    9.2489265158494614e-003 -1.2954115111664761e+000
    9.3930855224292325e-003 -1.3338884096361960e+000
    1.0042440091004756e-002 -1.2750473307645536e+000
    9.4900767252441877e-003 -1.3071629409639383e+000
    9.5696794060117323e-003 -1.3590061505479911e+000
    1.0517044657137988e-002 -1.0512701891839709e+000
    1.0938508225819212e-002 -7.5458359632599936e-001
    3.4978687741221141e-002 -1.8774617016817019e-001
    4.2093544251933041e-001 -5.2270559139892918e-002 1. 0. 1. 0.
    4.3202201089777537e-001 -5.1320388487856618e-002
    3.1795957151336735e-002 -2.2272392486917802e-001
    9.9995891019414151e-003 -8.0095152815966342e-001
    1.1080198022283294e-002 -1.0535736586251170e+000
    9.2359105682445486e-003 -1.3005361477211788e+000
    9.2793025075242012e-003 -1.2263395139761353e+000
    1.0044980210399622e-002 -1.0112127085893436e+000
    9.2424473024059189e-003 -1.0434203082186224e+000
    9.1875403045977907e-003 -1.2070976427841489e+000
    1.0308232008151060e-002 -1.0411561084235161e+000
    1.0651572239828152e-002 -7.6164159729255942e-001
    3.4497930860677484e-002 -1.8908829967261825e-001
    4.2929332746794008e-001 -5.2409239259999865e-002 1. 0. 1. 0.
    4.2310854159528527e-001 -5.2667011760514262e-002
    3.1624727683657455e-002 -2.2517714541002778e-001
    1.0256240874061932e-002 -8.2820219170649123e-001
    1.1784356406015580e-002 -1.1881607318546372e+000
    9.8260305047239409e-003 -1.4767094928544640e+000
    9.7895395262522552e-003 -1.3679197171591748e+000
    1.0361486948808356e-002 -1.0374818604667086e+000
    9.4192125578150907e-003 -1.0374098618433809e+000
    9.2361834187672485e-003 -1.2014804355650186e+000
    1.0515515690153006e-002 -1.0791776096375458e+000
    1.0897775437261609e-002 -8.1125818602932487e-001
    3.4981649823974205e-002 -1.9403196971484435e-001
    4.2059271930104464e-001 -5.2353851355246728e-002 1. 0. 1. 0.
    4.5084472381282759e-001 -4.9374377293684886e-002
    3.1461020884646231e-002 -2.2254294844794642e-001
    1.0292201575699083e-002 -7.9792895022708121e-001
    1.1517172053129198e-002 -1.1757543911509138e+000
    9.7943057753810490e-003 -1.5408828551670548e+000
    1.0002668290929835e-002 -1.5325183266526314e+000
    1.0521285515570388e-002 -1.1594821829397288e+000
    9.3815456819808588e-003 -1.1236323862248725e+000
    9.1238301243166675e-003 -1.2136659701992727e+000
    1.0504997868199549e-002 -1.0618251929597284e+000
    1.0929492212696276e-002 -7.6596052935501069e-001
    3.5653706443136333e-002 -1.9078253510550780e-001
    4.1951180793756204e-001 -5.3474575159007012e-002 1. 0. 1. 0.
    4.8255221305302914e-001 -4.9959026246663103e-002
    3.3501529165365140e-002 -2.1286803465784823e-001
    1.0689415745770483e-002 -7.4157741773567687e-001
    1.1388427533729404e-002 -1.0501343316021312e+000
    1.0003780688714900e-002 -1.5587847964894059e+000
    1.0496612658396000e-002 -1.7770683569404968e+000
    1.0295382714636375e-002 -1.5100017872342979e+000
    9.6749409827862204e-003 -1.4348701745700407e+000
    9.3722690909019014e-003 -1.3289916832349307e+000
    1.0676955783535029e-002 -1.0421341411230829e+000
    1.1731357469561818e-002 -6.7978337246199694e-001
    3.6062501577897317e-002 -1.8265408863227645e-001
    4.2443336677538723e-001 -5.5498917199534474e-002 1. 0. 1. 0.
    4.2116830361140933e-001 -6.1121073384659948e-002
    3.2634091055749319e-002 -2.1100840024646531e-001
    1.1525988357858147e-002 -7.2415074072396024e-001
    1.2263829752054525e-002 -9.4501578602568570e-001
    1.0618305059334716e-002 -1.3553843836555279e+000
    1.1138406003953591e-002 -1.7080755605631956e+000
    1.0494299880518502e-002 -1.5353801310828616e+000
    1.0233594564765332e-002 -1.4032456748202757e+000
    1.0310020526937200e-002 -1.2406607316378191e+000
    1.1341016591505453e-002 -9.4632673034313575e-001
    1.2389736101109911e-002 -6.6425964853039210e-001
    3.8193666257327369e-002 -1.7402003473977376e-001
    4.1696040893517589e-001 -5.5020808001320337e-002 1. 0. 1. 0.
    3.8228581869238398e-001 -6.1998478076383041e-002
    2.9767700699367301e-002 -2.4134818017655787e-001
    9.8620217336184996e-003 -7.1042557877968859e-001
    1.0009495051230376e-002 -7.4521319619294879e-001
    1.0031963778646890e-002 -8.3616207970107248e-001
    1.0064751904788685e-002 -9.0903803215225787e-001
    1.0159609094254224e-002 -9.2735160784573289e-001
    9.9660618410262972e-003 -8.7786333058742139e-001
    9.9222995301020880e-003 -8.1695083949775005e-001
    1.0063458797555384e-002 -7.5123027345796589e-001
    1.0091983790815039e-002 -6.9026813729008252e-001
    3.6858570356192659e-002 -1.9457178283182253e-001
    4.1140555871433093e-001 -5.6749839188302377e-002 1. 0.</input_scale>
  <output_scale>
    5.2631578947368418e-001 4.9999999999999994e-001
    5.2631578947368418e-001 4.9999999999999994e-001
    5.2631578947368418e-001 4.9999999999999994e-001
    5.2631578947368418e-001 4.9999999999999994e-001
    5.2631578947368418e-001 4.9999999999999994e-001
    5.2631578947368418e-001 4.9999999999999994e-001
    5.2631578947368418e-001 4.9999999999999994e-001
    5.2631578947368418e-001 4.9999999999999994e-001
    5.2631578947368418e-001 4.9999999999999994e-001
    5.2631578947368418e-001 4.9999999999999994e-001
    5.2631578947368418e-001 4.9999999999999994e-001
    5.2631578947368418e-001 4.9999999999999994e-001
    5.2631578947368418e-001 4.9999999999999994e-001
    5.2631578947368418e-001 4.9999999999999994e-001
    5.2631578947368418e-001 4.9999999999999994e-001
    5.2631578947368418e-001 4.9999999999999994e-001
    5.2631578947368418e-001 4.9999999999999994e-001
    5.2631578947368418e-001 4.9999999999999994e-001
    5.2631578947368418e-001 4.9999999999999994e-001
    5.2631578947368418e-001 4.9999999999999994e-001
    5.2631578947368418e-001 4.9999999999999994e-001
    5.2631578947368418e-001 4.9999999999999994e-001
    5.2631578947368418e-001 4.9999999999999994e-001
    5.2631578947368418e-001 4.9999999999999994e-001
    5.2631578947368418e-001 4.9999999999999994e-001
    5.2631578947368418e-001 4.9999999999999994e-001
    5.2631578947368418e-001 4.9999999999999994e-001
    5.2631578947368418e-001 4.9999999999999994e-001
    5.2631578947368418e-001 4.9999999999999994e-001
    5.2631578947368418e-001 4.9999999999999994e-001
    5.2631578947368418e-001 4.9999999999999994e-001
    5.2631578947368418e-001 4.9999999999999994e-001
    5.2631578947368418e-001 4.9999999999999994e-001
    5.2631578947368418e-001 4.9999999999999994e-001</output_scale>
  <inv_output_scale>
    1.8999999999999999e+000 -9.4999999999999996e-001
    1.8999999999999999e+000 -9.4999999999999996e-001
    1.8999999999999999e+000 -9.4999999999999996e-001
    1.8999999999999999e+000 -9.4999999999999996e-001
    1.8999999999999999e+000 -9.4999999999999996e-001
    1.8999999999999999e+000 -9.4999999999999996e-001
    1.8999999999999999e+000 -9.4999999999999996e-001
    1.8999999999999999e+000 -9.4999999999999996e-001
    1.8999999999999999e+000 -9.4999999999999996e-001
    1.8999999999999999e+000 -9.4999999999999996e-001
    1.8999999999999999e+000 -9.4999999999999996e-001
    1.8999999999999999e+000 -9.4999999999999996e-001
    1.8999999999999999e+000 -9.4999999999999996e-001
    1.8999999999999999e+000 -9.4999999999999996e-001
    1.8999999999999999e+000 -9.4999999999999996e-001
    1.8999999999999999e+000 -9.4999999999999996e-001
    1.8999999999999999e+000 -9.4999999999999996e-001
    1.8999999999999999e+000 -9.4999999999999996e-001
    1.8999999999999999e+000 -9.4999999999999996e-001
    1.8999999999999999e+000 -9.4999999999999996e-001
    1.8999999999999999e+000 -9.4999999999999996e-001
    1.8999999999999999e+000 -9.4999999999999996e-001
    1.8999999999999999e+000 -9.4999999999999996e-001
    1.8999999999999999e+000 -9.4999999999999996e-001
    1.8999999999999999e+000 -9.4999999999999996e-001
    1.8999999999999999e+000 -9.4999999999999996e-001
    1.8999999999999999e+000 -9.4999999999999996e-001
    1.8999999999999999e+000 -9.4999999999999996e-001
    1.8999999999999999e+000 -9.4999999999999996e-001
    1.8999999999999999e+000 -9.4999999999999996e-001
    1.8999999999999999e+000 -9.4999999999999996e-001
    1.8999999999999999e+000 -9.4999999999999996e-001
    1.8999999999999999e+000 -9.4999999999999996e-001
    1.8999999999999999e+000 -9.4999999999999996e-001</inv_output_scale>
  <weights>
    <_>
      -6.8854180463223946e-003 7.5499115485047133e-003
      1.3520609610716701e-003 6.2502545652453768e-003
      -3.6788491697002206e-003 5.2449444752439359e-003
      -2.7242602530034798e-003 -4.6019927894253307e-003
      -3.6783094175772742e-003 -4.1102765529224651e-003
      5.2807759359226065e-003 3.0604037805351085e-003
      3.8176085903052033e-003 3.8944125402030948e-003
      8.2254074010879562e-004 -6.8077266385108944e-003
      6.7660741315619987e-003 -3.1632114530373940e-003
      -8.1682594389020534e-004 -4.5887007277212177e-003
      5.8789882224479723e-003 4.7697576057085470e-003
      3.5456868697453436e-003 3.8922482120352844e-003
      6.1308285686144806e-003 2.9644537426558887e-003
      4.9074862146387165e-003 -2.7391160848633900e-003
      -1.4103591784573770e-003 4.8819867593144183e-003
      -2.9904922128288153e-003 3.8469991415008564e-003
      4.7465128275145704e-003 -6.0110645513808565e-004
      -6.3785603860664567e-003 -5.5018816924829080e-004
      4.7773109508256941e-003 4.3914944922643657e-003
      -4.2730201800054898e-004 -7.4298955758762041e-003
      -3.9106754755660966e-001 -1.2737599529258187e-001
      6.9627918831511024e-002 -3.8508403643223915e-002
      -7.3677191789406932e-002 -9.5535663976646271e-002
      2.7853869523753844e-001 -1.3871817485342367e-002
      4.7779877454441858e-002 3.6024540644732386e-002
      1.1904575114137725e-001 3.3199310542716590e-002
      8.9519321890150619e-002 -9.3759068365813866e-002
      -1.2645042364196314e-002 3.7905832938728116e-002
      -2.4499312968474830e-002 -1.4842599299873585e-001
      -1.2081001070681324e-001 9.1917626492339241e-002
      4.1690888771590533e+000 -1.2229019984221931e-001
      -1.2765133271261678e-001 1.3710008788397073e-002
      2.9775036371245317e-001 -1.6929418033654497e-001
      -4.9179592661046378e-001 2.2127395735589750e-001
      5.3020638964091649e-001 9.9610381164311160e-002
      1.1738048398912061e-001 -7.5977289023133956e-002
      -1.7631652350069540e-001 3.1261093157574776e-001
      -1.1542946451964463e-001 -5.1876361592262099e-001
      9.0953017477916273e-002 8.5556005163081053e-002
      2.5757351032026653e-002 -3.4661102951914040e-002
      8.3804072969368271e+000 -1.3212979301464930e-001
      1.6621487218191600e-001 -3.9638147703578558e-001
      7.0784773686231595e-001 -1.0932261892198152e-001
      2.1190429873881281e-001 1.8994247250237881e-001
      -1.9909458314898570e-001 2.7119353661705820e-001
      -1.2106316373847910e-001 2.1723032185207081e-001
      -3.2758356382661757e-001 7.6116859166610085e-001
      -3.6488419295767299e-001 2.4610391135177484e-001
      5.2797617399965990e-001 -1.2534207396750789e-002
      1.4613908041140067e-001 -2.4547730081909666e-001
      1.2410676681765489e+001 1.6478282482146372e-001
      5.3837590138394169e-002 4.5074167105468849e-001
      2.8845775215108482e-001 -2.1913902583013273e-001
      2.4635285025551368e-001 4.3897363621796098e-001
      -2.3279714860749659e-001 4.6490505772275004e-001
      -2.4801362389203083e-001 6.7288784067226118e-002
      -2.4563956356796351e-001 5.3444443832039334e-001
      3.9315921268612758e-001 -2.4819565524115542e-001
      1.0116428972569166e-001 -4.9469067723196591e-001
      2.5221500353913839e-001 4.5927596241071217e-001
      4.3474897611372807e+000 4.3777194050893115e-001
      -1.0439143816628479e-001 -1.3332165412591829e-001
      1.9815296876990116e-001 -2.8286140390627129e-001
      5.0420888932255947e-001 -1.0615539559795908e-001
      -9.9416546969258413e-001 3.0596032368600590e-001
      -1.2328191458393941e-002 1.1192429030971576e+000
      8.1182699826117075e-002 1.1640087428474817e+000
      1.1498079923856019e+000 -7.0565878204066679e-001
      -5.1924679289355335e-001 -2.2424265518826231e-001
      3.3020153457766982e-001 2.6592286704125512e-001
      3.8256666607664719e-001 3.9086044112744395e-001
      -1.2746778680814386e-001 1.5943646309420789e-001
      7.5592118090125016e-001 1.1167794664208150e-001
      3.6847172854520815e-001 -4.7403114047841777e-001
      -4.0314260367355104e-001 1.7344722804817091e-002
      -3.3736703118834965e-001 7.9479297555030415e-001
      -7.7706257514323196e-001 1.1838306777873033e+000
      -8.1817938985433714e-002 -6.6608711183128377e-001
      -3.3792716833211733e-001 1.5667202409182856e-002
      -1.1649682803867978e-001 2.1400973293677253e-001
      4.6227855601622743e+000 -2.2812805681693610e-001
      -2.4576064645258053e-001 -6.0335718342513089e-001
      8.6399993898083827e-001 4.0825570145078854e-001
      6.0261713519532756e-001 8.5195712054015749e-001
      -1.2256147587628030e+000 9.6740587909249753e-001
      2.0039311221895884e-002 1.7514250608170842e-001
      -1.7420523493252149e-001 1.0898117802948810e+000
      5.8207522592056693e-001 -7.7632279187041228e-002
      1.3888861324849004e+000 7.0417587335252652e-001
      5.2745872969268681e-001 5.0765878762648609e-001
      7.4700407621567511e+000 -7.4406903034526337e-002
      -4.5065046452421298e-001 -8.1369110360447472e-001
      1.3732035376676675e+000 -4.0294653208064413e-002
      8.9438583838711860e-001 1.0947038900025918e-001
      -5.0144315506584713e-001 1.4159580076855289e+000
      -7.3395825245588464e-002 2.3010663215620114e-001
      -3.2700462164959566e-002 9.0498498486465362e-001
      -6.1775452238751338e-001 3.1744083002928214e-001
      1.5065167718963679e+000 2.7457168657791270e-001
      6.2010566984488502e-001 2.1403957551575412e-001
      8.6328681080209027e+000 -1.8541522683020778e-001
      -2.5911090614412630e-001 -1.0791630647076873e+000
      1.1210363220078929e+000 -9.4474804927325906e-002
      1.1555969374773301e+000 -1.5706774460755335e-001
      -1.0287736702435166e+000 6.4157691043093945e-001
      7.9679127095248811e-002 3.4771781103063559e-001
      -2.3995761713259328e-001 9.6262503443580649e-001
      -9.4291383204365975e-002 -4.1473690265886720e-001
      1.1663911849844699e+000 7.4451185070725323e-001
      7.8117929416141679e-002 -2.7548169247406196e-001
      8.3495114710990368e+000 6.8628735939178143e-001
      -3.4179720553839749e-001 -1.1607872760033624e+000
      2.7943262985584472e-001 -1.6035436800749597e-001
      9.6361983933709050e-001 -1.9960262574714158e-001
      -9.7839104280342781e-001 9.5562408997738890e-001
      3.9420423164451474e-001 1.2355928423344063e-001
      -4.9809223732289259e-001 9.4907380427865484e-001
      1.3931598765545161e-001 -2.1332707310339546e-001
      8.6809473859790054e-001 3.8411474679159746e-001
      9.4828185453512082e-001 -5.4762791704284131e-001
      -6.1947691774509217e-001 8.1334882540875142e-001
      -6.2308557488826299e-001 -8.0308294179745909e-001
      -2.6561823706940035e-001 -1.9353066787792947e-001
      2.8886496271028222e-001 -1.8986624926575388e-001
      -6.4185004534799361e-001 -2.8431469718031271e-001
      -3.7954700305005140e-001 6.9977246107309321e-002
      -4.1088428165800245e-001 4.3303994641247029e-001
      7.9607783017438749e-001 3.0023832836929515e-001
      4.3392143534633953e-001 8.2172171147127909e-002
      -2.2106972260878405e-003 2.1005229734337011e-001
      9.2316237840956124e+000 5.0070490398625755e-001
      -3.6680878235979286e-001 -7.4337301520337384e-001
      -3.6455999223199614e-001 -5.1613571706434813e-001
      3.7083179129832988e-001 1.1788409787861323e+000
      -8.1230307672197410e-001 5.0389971698959601e-001
      1.2565108220551799e-001 6.3044956483583131e-002
      -6.0817940190577935e-001 3.6163617445671875e-001
      -7.8051685243911095e-002 -1.8228132027495991e-001
      -2.3527508671023709e-001 -1.1620448313631545e-002
      -7.4584664691962496e-002 3.2557187066097171e-001
      1.6671085969123475e+001 3.0767477187325593e-001
      -2.7949180289508768e-001 -3.1576209217716183e-001
      6.4091146086045048e-001 -5.0219438981619380e-001
      1.2561326294770062e-001 -5.4237486329052531e-001
      -5.1667532655728721e-001 7.8854281839933524e-002
      1.3781278387311383e-001 1.1479386827793403e-001
      -1.5860199386091969e-002 4.4843670136656066e-001
      4.6944034901816395e-001 1.8152830872912790e-001
      8.7090472273887734e-002 -1.6806106489330111e-001
      -5.7449582548420149e-002 -1.8078305581477908e-001
      1.4390944741674009e+001 1.1018546165561199e-001
      1.9790357895693084e-001 -1.6490991304780750e-001
      -4.3913505313431495e-001 -4.5410676488553375e-002
      -3.6915133706877552e-002 -3.1473779318351763e-001
      -6.2689663378966531e-001 -2.9762277049962898e-003
      -1.9378828233445841e-001 1.4827229756599136e-001
      -6.7949430928812193e-001 3.5499638252875061e-002
      8.6750788085135377e-001 -1.6995688549132990e-001
      -3.0383054771945261e-001 -1.6292968011870540e-001
      -5.2953421450782800e-002 -9.2347136516589129e-003
      6.1527856116228952e+000 -1.8160375794079106e-001
      -1.6118031791090828e-001 -9.0594653515102472e-003
      6.9929909966547033e-001 3.4896249779857175e-001
      -1.7071491065710800e-001 1.3050697608497283e-001
      4.4196584599280447e-001 -3.5171552486686075e-001
      -4.8491778246454479e-003 -2.4073393126099407e-001
      -3.6400741397091679e-001 2.4161774583288689e-002
      -1.8579442835509105e-001 1.9708421785670660e-001
      1.0140463682604970e+000 9.8715812816234913e-002
      -1.6580152317838459e-001 -3.3312190599373132e-001
      1.0320137210332962e+000 -1.4032686683645482e-001
      7.5494497181620185e-002 -2.8415016076518234e-002
      -5.7632770615937051e-002 -7.8371005821000442e-002
      2.5277116147864320e-001 -1.6721071285613769e-002
      3.7416171498165451e-002 9.8223236059862117e-003
      1.1878609531386243e-001 2.6370181290656075e-002
      6.9996460233033714e-002 -7.7720999251874132e-002
      3.3436934394227166e-002 -6.9670971126221688e-003
      -2.0861037060960215e-002 -1.3395412862657372e-001
      -4.2271682418608500e-002 9.3674889878000198e-002
      1.3845999989723096e-003 -1.0400781386809535e-003
      -6.5175019230906033e-003 6.7120187762739064e-003
      7.7731440000516723e-003 5.7307502112598245e-003
      -3.3915488006778932e-003 6.9867509265118914e-003
      -1.0501352812787913e-003 1.0260103720943954e-003
      -5.6377813885770236e-003 4.2169706023468577e-003
      -3.2142042942839692e-004 -1.0950934663884343e-003
      1.7419039722776433e-003 6.2036474522398526e-004
      6.8223516377480843e-003 2.1234237755362356e-003
      -1.5348003959891060e-004 1.1444669930848728e-003
      -6.9699270709338334e-003 -3.2675263447614661e-003
      6.3306278896454104e-003 4.7822109430509380e-003
      2.6692268585383158e-004 4.4819197917596457e-003
      3.1052985986084439e-003 -7.9279546337827061e-003
      -4.7498478976298235e-003 5.2245752364476145e-003
      -7.3824933415429774e-003 4.0897288267072339e-003
      2.7543241138399551e-003 6.6158056548574840e-003
      -8.2925673714805235e-004 4.6669875835498613e-003
      -5.9967438652613252e-004 3.6937102157231722e-003
      -4.8560208961842925e-003 3.6052748890837722e-003
      1.0390213368841204e+001 -4.9040559217881163e-001
      5.5043420686610200e-001 5.5809059056473587e-001
      -4.2056958237614538e-002 2.2523419712379289e-001
      -1.1250847372023148e-001 -8.1814281987654358e-001
      -2.5093826294398724e-001 2.0236063588078673e-001
      5.4372861839084696e-001 -1.6642310497260129e-001
      5.0266456774934942e-001 -1.2582184220074097e-001
      -5.6413082667157632e-001 2.2811179819947422e-001
      2.1401118648967427e-001 8.0928295045678167e-002
      -2.9404905418748506e-001 -3.0194944770100013e-002
      -5.5903625970207429e+000 -9.6774038130026038e-003
      2.9619434894663239e-002 3.6791236842276881e-001
      -5.9125014209811655e-001 3.1792677151079841e-002
      -5.7973647156962127e-001 -3.0961475914076259e-001
      -3.6630435239811610e-001 2.7533964147888623e-001
      5.3740348367242652e-001 4.2870584525112126e-001
      6.4814231968667779e-001 7.5788403303171437e-002
      3.5250805870153626e-002 1.7021352983523449e-001
      6.6872304733988075e-001 -6.3389621279406161e-001
      3.6820452687635513e-001 -1.2372458816428404e-001
      -6.3750439325433108e+000 -1.4785236924467066e-001
      2.0424830826151089e-001 3.2277243700470515e-001
      -2.0056331027227853e-001 -4.8376918226028859e-001
      1.7445008657569019e-001 2.8275986600705105e-001
      1.7694306752804120e-001 7.2310035054908670e-002
      -1.8507089984834502e-001 2.1647296455893830e-001
      -1.0136622513204627e+000 -5.8795418344195005e-001
      7.0360280085575422e-001 -9.2461857966795347e-001
      -2.8951827602114433e-001 7.1396549837693404e-002
      -1.0856915902487899e-001 -1.1480796869557065e-001
      3.5363642451279809e+000 -4.0409965470898424e-001
      6.9842363634439894e-002 1.8191789717353990e-001
      -1.4826541761922654e-001 -8.8997004169386870e-002
      -1.0080637805041939e-001 -2.6719620909693990e-002
      1.6299118023059464e-001 -6.6345581866592307e-001
      3.3790723774009240e-001 8.7450607337165065e-001
      -6.5492522834821865e-001 -9.4533322161198929e-001
      5.4185090468189501e-001 9.0113776598679141e-002
      3.8372134644312918e-002 5.4409112410382843e-001
      -2.5745549609665602e-001 -1.8573546679406641e-001
      1.9871084693155023e+001 1.1007179292082467e-001
      -6.1877335648224996e-001 7.2170529964305363e-001
      1.8687127879840576e-001 4.8456870370274707e-001
      -3.2601974616666396e-001 7.0447214186683527e-001
      1.3768924858891421e-001 -8.6191354289032263e-001
      3.2774103359908557e-001 8.0179900147086880e-001
      -7.3832147972613482e-001 -2.1596884924219384e-001
      9.8218208055026957e-001 -3.3073256630763065e-001
      1.6901366640309192e-002 4.9927422517679287e-001
      2.6792217999236628e-001 -5.4559883103763496e-001
      2.5842287521996663e+001 -2.6633165947777576e-001
      -3.9439416289361257e-001 6.6625728296361464e-001
      -6.9427450465551668e-002 8.1828301090715469e-002
      6.1324146757196152e-001 -2.2713296516351011e-001
      5.0970071616615142e-001 -1.0283890937357643e+000
      7.6041830192448912e-001 -1.1168139959316130e-001
      -1.3829917787201049e-001 -2.0558281584208568e-001
      1.2150856520916322e+000 -6.3277419619587572e-001
      -3.2600812087518960e-001 6.8236032089276721e-001
      -2.4140805246045718e-001 -8.8704431151438301e-001
      2.7064849309926970e+001 -3.2985452165989360e-001
      1.6668425663487968e-001 9.9555893230764458e-001
      -1.0256554302326598e-001 -2.3476090774670536e-001
      4.1882406489801699e-001 -6.1041741087603067e-002
      1.2592970920302311e+000 -1.6042783639366512e-001
      1.5293999579950207e-001 -3.2070306331605680e-001
      4.3717570762667873e-001 3.5650648785680229e-002
      -6.2444144083195430e-001 -6.7598221521338731e-001
      -5.7016508197243923e-002 -2.6221312369249056e-001
      2.9383025477329577e-001 1.5617415477570003e-002
      1.4799130928808177e+001 -3.9659604606266824e-001
      6.8938784805045505e-002 8.4649793280650765e-001
      -5.9218948093206170e-001 -4.5114765367317777e-001
      -3.5592519640110004e-001 -1.2347814655592575e+000
      8.5256779339494004e-001 5.2629582191899482e-001
      -5.8807178205221322e-001 -8.8050481438649775e-001
      -3.2107220152709415e-001 -5.1473950070456076e-001
      -7.5358393903148657e-001 1.5702900028522812e-001
      -8.1416267671106568e-001 4.2770285133655039e-001
      3.0412930766782431e-001 3.3610075921821442e-001
      1.4840757091502052e+001 -3.7827417548421061e-001
      7.1346840931984967e-001 2.3389967187642260e-001
      -3.9918159405743631e-001 -2.5841568317187380e-001
      -3.5107835762127193e-001 -1.3776557564825802e+000
      -7.9527365276755568e-001 -1.9666029657178366e-001
      -1.4601627643764392e+000 -4.9320623770320382e-001
      -1.4719493287041607e+000 -1.1073484369001087e-001
      1.2088733089413448e-001 1.0079882229980752e-001
      -2.5285712330908899e-001 2.6704758736153844e-001
      -8.6128952327154118e-001 2.7279972836719663e-001
      1.3668000368847663e+001 -4.6292110103127665e-001
      2.8386718918474446e-001 -4.1547388327994905e-001
      -5.7060136117046500e-001 -1.9283057112381838e-001
      4.3818355286537503e-001 -6.9690746628124889e-001
      -1.4752909086513593e+000 -2.8168949457396442e-001
      -9.4585757630530820e-001 -6.1412309038893709e-001
      -4.5089596930170767e-001 -3.1292582902571989e-002
      3.4769372631595691e-001 -3.8306874097529753e-001
      -7.1345572271966573e-001 3.1319748256295987e-001
      -4.6777396180589365e-001 2.3856202100146595e-001
      2.1947645209765589e+001 -5.3218208674745426e-001
      7.5604948741773459e-001 2.9733421798525667e-001
      -9.4521273215897733e-002 4.3368799863291597e-002
      2.7213677404905184e-001 -1.2426104011430257e+000
      -4.5052720845087341e-001 -2.7811440745133303e-001
      -5.4698841228836281e-001 -5.0659179844345015e-001
      -2.7251250116028169e-001 4.6268686358503547e-001
      2.6783863640989819e-001 9.9201951359707524e-002
      2.4025048690403789e-001 4.8361241063472483e-002
      -1.0062560578473201e+000 4.5059647653044282e-001
      1.5611810870314137e+001 1.6167545822244004e-002
      7.0326543792357143e-001 7.5372038691758414e-001
      -1.6709825299813158e-001 -1.6468710656048574e-001
      3.2779916754779476e-001 -1.3382946041136450e+000
      4.0204001947583828e-001 5.6900166009868181e-001
      4.5300920022951729e-001 -2.4152233507975848e-001
      1.1028497489180862e+000 -3.7411375043287676e-001
      -1.2384023545703631e+000 2.3108060767142946e-002
      4.5256937971662814e-001 -1.2277800886149632e+000
      -6.2693233140240967e-001 4.0192823800882160e-001
      1.5558601372625384e+001 -1.6358876242126043e-002
      3.4739418255445892e-001 7.4630221891331450e-001
      2.8573116925584047e-001 8.4120086367834601e-001
      -3.7325532450853499e-001 -5.7134194400427651e-001
      4.3901516177714889e-001 -4.4862405198140010e-001
      4.2229999602954904e-001 -4.7575238502301120e-001
      7.2260757327943559e-001 -2.0556532560647239e-001
      -5.4601045756758271e-001 7.1192626813782944e-001
      -4.7376001697601272e-001 -4.0099418111581679e-003
      -8.8442507293643835e-001 -6.8115805566198417e-001
      9.9534875094261643e+000 4.2184790336391681e-001
      -4.1552658119553781e-001 -7.8972414115360012e-001
      5.7355782828289881e-001 4.6883189747129006e-001
      -4.8416413598687891e-001 1.8262389183112869e-002
      3.9770298996585379e-001 -4.9980110203155870e-001
      -3.1578240441742644e-001 -2.9332839804592353e-001
      6.0162462270205874e-001 4.3597010272488479e-001
      2.1199467539048150e-001 6.4884758476672455e-001
      -4.6770001411602674e-001 1.8778286658486301e-003
      -2.5077637969295735e-001 -7.1693730336926587e-001
      8.1603322523083188e-001 7.6171441024810471e-001
      3.6144482108307435e-001 -7.7318842515742969e-001
      -2.1813030224813065e-001 2.6855085654078070e-001
      -5.1746336366123047e-001 2.6399783651804204e-001
      9.5890901835691533e-001 -8.7250918680930734e-001
      -9.0212529796790134e-002 1.3235234848398858e-001
      -2.6212459547499573e-001 5.0892254893175004e-001
      -1.6048947212932188e-001 6.9225761055804114e-001
      2.1581345575340405e-001 -5.3486063911606885e-001
      1.3097863764337720e+000 -2.7894113960701339e-001
      -4.3352902091585532e+000 5.8643877675260403e-001
      5.6417113651229006e-002 -3.8640991693540605e-001
      2.3937728206048417e-001 1.7804605626513478e-001
      -8.9776861868374447e-001 5.5222818917582595e-001
      4.6192998744050123e-001 -5.3773870351087871e-001
      6.7499881876293744e-001 -1.9434229492699441e-002
      3.2363171514095262e-002 4.4307017290002687e-001
      -2.8366906621263116e-001 4.1855569102395629e-001
      4.4089395620776606e-001 -4.8444465515320068e-001
      3.3158930333013525e-001 -9.1026243845215751e-002
      -1.0639638250315231e+001 7.9274078125788100e-002
      -1.2953200760402730e-001 -1.6422962145625414e-001
      -8.1258552241432380e-001 -2.5186022321372203e-001
      -6.5488364257228271e-001 -7.7506762724204670e-001
      1.2950342072115401e-001 -9.3759622949220245e-001
      -5.8840133112271076e-001 -4.3699814865825343e-001
      -3.7728388558286763e-001 1.5087312988615209e-001
      -7.6184212567120102e-002 -1.6555391106899517e-001
      -5.8987036855051445e-001 1.1254628172075634e+000
      1.9139638882404519e-001 1.8800027485264831e-001
      4.9017032739263200e-001 1.4615346713349128e-001
      -3.9437510711219653e-001 -1.3271075023883874e+000
      -3.5390231809344619e-001 -4.9770051750021721e-001
      2.6730884855964487e-001 8.2469923125345845e-001
      -1.3781306367136537e-002 -8.9852000992231396e-001
      2.2990156307177839e-001 -6.0109343412309468e-001
      -7.5086997022900753e-002 3.2651378887998725e-002
      7.6757078441790338e-001 -6.2357019205591135e-001
      -3.9233772429688729e-001 8.9236526343127587e-001
      4.9178497315791708e-001 9.4007143170176788e-001
      3.9338168971857952e+000 -1.0976509165710799e-001
      -1.3310041443841755e-001 1.3440792569926274e-001
      3.0152945883314558e-001 -7.8729956594499584e-001
      -3.2821381732361155e-001 9.5699406510258400e-001
      -5.4646739505989465e-003 -4.5771871955089571e-001
      1.3770862212269605e-001 -3.0861658108165807e-001
      2.0796457503959143e-001 -1.2032681422924176e+000
      1.9122078339880824e-001 -2.4872242257572855e-001
      5.5260751675239494e-001 5.2916084451724278e-002
      2.3538311654524571e-001 5.5206102862672392e-002
      7.8233030769183367e+000 -2.2267537697296522e-001
      3.8927796260955427e-001 6.0794561285473514e-001
      -5.3613591692324059e-001 2.7116249068532228e-001
      1.2166309869951616e-001 -7.4095792003756356e-001
      -1.7577721382029476e-001 -4.1870301926252496e-001
      4.8004962346561923e-002 -1.6520534132911158e-001
      -2.2194839193730972e-001 -2.1482965688053807e-001
      -2.6158951941837011e-001 -3.6166957983671477e-002
      -5.2604062097989801e-001 -3.2673060538052590e-001
      1.0783221065082398e+000 -4.1999737004140586e-001
      -3.7691867297903209e-003 4.4692240013956951e-003
      3.7714748531828299e-003 -3.2502451721310517e-003
      -3.6277344692357263e-003 -5.4250158135390166e-003
      -4.8657923411499554e-003 8.0115349124270218e-003
      -6.2098616562118302e-003 3.6141600738732811e-003
      -2.4988172199899251e-003 5.3856230423386551e-003
      -3.0481804410547415e-003 7.3369446105067432e-005
      -5.4235459471995810e-003 5.6686275204739468e-003
      6.1275941210452763e-003 6.0737581013282031e-003
      1.5496051156570754e-003 -2.3283181202188880e-003
      1.9923146093096175e-001 -1.4325694177306453e-001
      7.8466482310451308e-002 -4.3250898751353156e-002
      -6.3072760410436982e-002 -8.2908555809314916e-002
      2.7336318297804280e-001 -1.3902443875160582e-002
      4.3005055220905322e-002 2.0828553072655666e-002
      1.1647171484169870e-001 3.5640343702368356e-002
      7.9394591123561772e-002 -9.1045532755060041e-002
      -4.4947656653716278e-002 -1.2548836499718564e-002
      -2.3515278664339105e-002 -1.3739890956340556e-001
      -1.1388917304108209e-001 9.1077425978057236e-002
      3.8806727273866168e+000 -4.2132572967798404e-001
      7.3156626679965642e-001 -7.0461719438358428e-001
      1.9310204952474489e-002 -2.5071306494904216e-001
      2.5111100070197517e-001 -5.8361309687562990e-001
      7.0957960168479128e-001 4.9984631558673820e-001
      3.7033073945052508e-001 -3.7109464746024878e-001
      4.5144961702788633e-001 -3.2747272579391429e-001
      2.4752012800090639e-001 5.9286764520705006e-002
      8.8643825768037054e-001 -1.3699352752440297e-001
      -6.9653779685993555e-001 2.0090063526902063e-001
      1.0189089052482339e+001 3.3198760177534831e-001
      1.3487194417846604e-001 -1.6578801506083835e-001
      -2.8190373890158876e-001 1.2236167397316207e-001
      2.8573262301791722e-002 -3.4445494282042238e-001
      1.4845086461444462e-001 -4.0930327247445447e-001
      5.7087439117044136e-001 4.1635707219433682e-001
      -3.5166554029642888e-001 4.5925489283413395e-001
      -9.5875594666094033e-001 4.0224531760020572e-003
      -3.7591164620879680e-001 7.0974743960551367e-002
      -1.8818036707032326e-001 -6.6050993258423674e-001
      7.8263977238057869e+000 2.2275161804828295e-001
      -1.4954929694052713e-001 2.9994460838003678e-001
      -3.7197604443736221e-001 9.4103246229899268e-002
      -1.8709316082337332e-001 -4.3221461812169559e-001
      1.7684184475625092e-001 -2.2119540164515272e-001
      4.4275409194722032e-001 5.6028552532345788e-001
      -5.7213222116600246e-003 -3.7940593752737012e-001
      -3.5754467553843661e-001 1.9572613298998211e-003
      -3.6237487506336580e-001 -3.6615124193455438e-002
      4.7091618207897694e-002 -3.8425473332488641e-001
      3.1270802271985891e+000 -2.3168122450387540e-001
      7.7084729472619809e-002 -3.2059798366264403e-001
      -5.5484809821335257e-001 1.3081857514551370e-001
      -4.9180806810670907e-001 -9.4703517831304729e-001
      5.7537181720046449e-001 5.3913564489598630e-002
      2.2294832755609773e-001 1.9081531820027461e-001
      5.0623031662820583e-001 -2.6898243825671803e-001
      4.6112721352938291e-001 2.0283232357143584e-002
      1.6650897964007247e-002 -2.9481964564531110e-001
      7.6180204858934830e-001 4.0534307479127668e-001
      6.2787997571971399e+000 -3.4541824452687309e-001
      4.1558563937171772e-001 -9.0083005748738898e-002
      -5.0391431336773129e-001 -1.2068416337760696e-002
      6.5021732638705823e-002 -6.5800351728367024e-001
      3.9717157926268154e-001 -3.1716990932952532e-001
      1.7006891173325844e-001 1.5091379007294597e-001
      1.6859299749982820e-001 1.8213873894036761e-001
      1.7041270646653582e-002 1.9973238985986796e-001
      -8.7041404344971415e-002 -3.6918563469356314e-001
      1.5146398155949346e-002 5.1220571117257707e-001
      9.2414116880345691e+000 -1.4052669444816274e-001
      2.1915532217856490e-001 2.8119955846352462e-001
      4.7842105867452406e-001 -3.5727761656456436e-001
      5.8796884172524244e-001 -1.1215918945020363e-001
      6.7876819309185776e-001 -5.4584382464808257e-001
      6.5108330415451762e-002 -2.6136635978506872e-001
      2.2184836864604335e-001 2.1655108637123685e-001
      -8.8732560441788166e-001 -1.2854397904686614e-002
      4.7452069471526159e-001 7.4920851075058109e-002
      8.7649211776248598e-002 4.5294957303540817e-001
      7.0608035468155350e+000 -8.8487553300899760e-003
      -9.3942095178806917e-002 -3.9150394631809549e-001
      2.5756828037118939e-002 -2.9412590151191581e-001
      3.3992442574953224e-001 7.7866025920215476e-001
      4.9740186298143106e-002 -5.1050908596183653e-001
      -1.0733876008049426e-001 4.0713841950590013e-001
      2.3059047654099055e-001 2.1717332239738998e-001
      5.9008091608002071e-002 -5.2602914501195464e-001
      -6.8786662393416875e-001 1.1767050790195584e-001
      4.9862368729450979e-001 2.8780431598568901e-001
      8.0716019790477738e+000 -1.3524737913694657e-001
      1.8850330379059421e-001 1.8976968114944695e-001
      -6.7908276697683656e-001 -9.6620215692932387e-002
      1.2879180112883723e-001 -8.6051981057805135e-002
      -7.0354043176576730e-003 -4.5873699529531198e-001
      -7.6279321034646935e-002 2.3802710211587091e-001
      -1.9217607872490514e-001 -4.0116352934509419e-001
      -9.2075562907607988e-002 -4.8678277861122776e-001
      -8.8403302716310284e-001 -3.7136930197171292e-002
      2.1040969109134228e-001 4.0678657280029507e-001
      7.8226062757471988e+000 3.1505449428585700e-002
      1.8925279615665028e-001 1.7586152541280797e-001
      -7.1068945403213291e-001 -7.5816163247559437e-002
      3.1395146065330048e-001 -6.7718405864665898e-001
      3.2119218894122570e-001 -8.9052820751527678e-002
      4.1273376960670716e-001 5.0970558366392982e-001
      -4.8040317145971179e-001 -4.2732804837978600e-001
      7.0254651914860922e-001 -6.0420062482509196e-001
      -1.7241423120534899e-001 2.2793974820739182e-001
      -6.4616058765314999e-001 2.2238343587735687e-001
      4.5547114529820956e+000 2.3518851597794541e-001
      3.7692042655072777e-001 7.3846247038949181e-002
      3.6814912379654213e-001 -1.9588960244514167e-001
      -4.0652954302101016e-002 -3.7329449024660122e-001
      3.8860180749095530e-001 -4.5061512542411246e-002
      1.8194394109616482e-001 2.1476073310543028e-001
      -2.8730810945583618e-001 -7.0793442869996767e-002
      -4.6098556618007114e-001 2.2438209164255168e-001
      1.6614930774362677e-001 1.1383384197412419e-001
      -2.4950477741134547e-001 -5.2255097674330142e-001
      5.6900791721296098e-002 -3.6868169315374294e-001
      4.9830835335955398e-001 -5.1718304018860384e-001
      -3.8690829347107064e-001 -4.2467824523685116e-001
      9.0489247526194827e-001 -1.4225150946449996e-001
      3.1512533716301128e-001 8.2861139616941956e-002
      1.0752397937397017e-001 1.2545641961787915e-001
      1.3683709022107113e-001 -3.9911460958559225e-001
      1.4099897318683952e-001 -1.9022634846724032e-001
      4.4054308056432256e-001 -4.3166643050873882e-001
      -4.2756616893849186e-001 -5.5903871515904154e-002
      1.1157238184210059e+000 -1.2729987949642046e-001
      6.2221274227246465e-002 -2.6371295182337280e-002
      -5.5304031034876057e-002 -8.4266345988203706e-002
      2.4650389156951891e-001 -1.9353910991184008e-002
      3.6338435200925223e-002 3.2122809520195413e-005
      1.1381364387918559e-001 3.7715818055256832e-002
      7.1293021915024207e-002 -8.3639663603402914e-002
      -6.2030918690935508e-002 -1.8013007584975524e-002
      -2.0595634326122762e-002 -1.3557657324753131e-001
      -9.8000357377846153e-002 8.8587812761920376e-002
      2.5440444432551631e-003 -5.6669954023689196e-003
      -2.4546783549436535e-003 6.4252102383050447e-003
      -3.8022314430931179e-003 -4.8857054458821339e-003
      2.9012524659313586e-003 2.3905332462144553e-003
      3.7330196421000278e-003 3.2341301066160922e-003
      3.6040645557692359e-003 -6.5056881212093316e-003
      6.4988193152326103e-003 1.7935424885628015e-003
      -4.0175343285082871e-003 5.0206279643174650e-003
      2.6973690212941759e-003 -7.0936044218575557e-003
      -9.0832090817130574e-004 -5.5437773804261755e-003
      3.9263017704691061e-003 -3.5488899068080099e-004
      -7.0047460229818040e-003 3.9890142500743752e-003
      -2.8804787430075358e-003 7.2028993213157071e-003
      1.9947813573470383e-004 1.9046454882097773e-004
      -1.7855223703762077e-003 -1.8820865611000710e-003
      4.5246370370408181e-003 -3.0715234460654416e-003
      -2.5427357676475167e-003 -1.5876737236934471e-003
      6.1672786164228867e-003 5.2211532676579809e-003
      1.6204207561882532e-004 -6.1981562918993014e-003
      3.1863654554237929e-003 -5.2621153289069862e-003
      -4.5548210607940079e-002 -1.4283358039909866e-001
      6.9523372265231004e-002 -3.6901160316627601e-002
      -6.7138020968900425e-002 -8.5926354653052525e-002
      2.6439384184058839e-001 -2.6721248006184962e-002
      4.0369352207968057e-002 2.9136088762291606e-002
      1.2107941734004714e-001 2.7613263699065135e-002
      8.1116973054442529e-002 -9.4172657225271128e-002
      -4.7733068804490762e-002 -2.5762182278554484e-003
      -1.7905024234131362e-002 -1.4958667906495815e-001
      -1.0232903126899505e-001 9.2263943690407427e-002
      4.6688805071390131e+000 -1.6144096205856370e-001
      2.9753125979511441e-001 -1.0835974843638010e+000
      1.6051019949211590e-001 2.5684738425320530e-001
      -9.5349965902642997e-002 -2.3473283228920508e-001
      3.4710507131699569e-001 4.0461061518778985e-001
      2.9780059667488529e-001 8.0766660798941056e-002
      3.4258994190494113e-001 4.8753086453358402e-001
      -1.8907265691095154e-001 -1.3326912091566964e-001
      1.5861911434273324e-001 -3.8390380583385919e-001
      -8.6412938037218154e-002 -3.1695966780252915e-001
      7.1998391087075531e+000 4.5829185033236181e-001
      -1.1993548637677483e-001 7.0014688761670357e-002
      3.0061992146596850e-001 -6.6087959179801081e-001
      -2.4906232544972026e-001 1.0867820709298015e+000
      -2.9935448707810058e-001 -1.9405811340888324e-001
      5.6221436919449952e-001 9.7456222947001714e-001
      6.9842106570626639e-001 -6.2686025010715529e-001
      -8.8132681675340585e-001 1.0132996391943433e-001
      -8.7634134831147048e-001 -6.3100077557015832e-001
      -2.8499965316698056e-001 -6.0982533383137050e-001
      -5.8866500229732956e+000 2.9072074473891907e-001
      -2.1073609408576532e-001 -1.8375583158836506e-001
      -7.1620048343068121e-001 -1.3482398080550313e+000
      -2.8649706611471487e-001 2.4065897893532657e+000
      -1.0321429219860980e+000 5.0744609885071616e-002
      -1.3090250619100011e-001 1.0617205639995622e+000
      -3.0459290689306950e-001 -1.1836228572192953e+000
      -2.0955914351124713e-001 -7.0025141012966963e-001
      -1.7461396926079793e+000 -3.1281224484344389e-001
      -5.3533314669905496e-001 -1.6233191429132676e-001
      -1.3775990797448735e+001 -5.9470781705145370e-001
      5.2462471305615910e-001 -4.0738273649213663e-001
      -5.2271393451136594e-001 -7.5414063717819158e-001
      -4.4018518114810340e-001 6.8806546531568891e-001
      2.2496101935583664e-003 1.8620092469040636e-001
      -1.3053192168077418e-001 7.2592848802052693e-003
      -5.6294794588256081e-001 -8.2262840328913900e-001
      1.2615539731628800e+000 -6.9554183001297443e-001
      -4.3186140252870325e-001 1.6378230831929860e-001
      7.9026907866459739e-001 2.1048090564479549e-001
      -8.3150069438348773e+000 -5.0777516417784385e-001
      2.5378403888002687e-001 -8.0692004671810769e-001
      3.0984919567748964e-001 -8.5039646297841026e-002
      7.5093517427161027e-002 2.5902755951946183e-001
      4.7844046181264749e-001 -6.9044801142738965e-001
      -6.2017377995794820e-001 -2.9934241163717878e-001
      -7.5121466833119344e-001 2.3823195857285953e-001
      8.9217354771779600e-001 -6.4789276372404514e-001
      1.3267180609514755e+000 3.2021831843470577e-001
      5.0402906029610250e-001 6.0325383300120758e-002
      -2.8500518149045559e+000 7.2900503495623201e-002
      2.1986673389381803e-001 -2.6468155271157129e-001
      2.7445859561366639e+000 -3.9315567707674798e-001
      4.1880670638286355e-001 -1.2749610769443238e+000
      3.4994061964245804e-001 -2.7137625963039969e-001
      -4.3690574859019168e-003 -2.7423453544613785e-001
      -6.0001445071691611e-002 9.3372390949583539e-001
      5.9535288855760815e-001 2.0603934106696761e-001
      2.6743283742821156e+000 -1.4320426461911792e-001
      8.0576386863497762e-001 -1.7855643165594709e-001
      -8.6022407442059095e+000 3.2203246522115836e-001
      4.5335750614183412e-001 6.1524214809423083e-001
      1.2566491078443245e+000 -3.4889974882914154e-001
      -1.2656773210980118e-001 -1.2505303806469505e+000
      9.3250818163163329e-002 3.7409668326723305e-001
      -2.5160371198833992e-001 1.0602207217499634e-002
      5.8948294409784119e-001 6.3312353839848912e-001
      9.5007083817086987e-002 1.0558071946426728e-001
      1.0928380998467346e+000 -6.6417298382754919e-001
      1.9459168241972571e+000 -3.6010117575382979e-002
      3.6204555409448838e+000 -5.8517053497215858e-002
      9.1851926337453052e-002 2.6265522974127614e-001
      -8.1367027572147532e-001 3.4470151145281164e-001
      2.0219217112598331e-001 4.4678987464950415e-001
      -1.4226540364484125e-001 4.6058477207534287e-001
      4.6183564279737205e-001 5.2517941821863667e-001
      5.8607970529267395e-001 -7.0495889437702752e-001
      -7.0523402301793958e-001 2.1965553045320024e-001
      3.3046842776127888e-001 -6.5178014735337908e-001
      4.5267193298185598e-001 8.6474198719281192e-001
      1.7527442655259474e+001 4.5774502752929264e-001
      3.6724534643629639e-002 1.1694558377679025e-001
      -1.6242969881463132e+000 9.2835380970011899e-002
      3.1036037274348366e-001 2.0017134564332120e-001
      -6.3034006626624373e-001 4.9017590951118378e-001
      1.3289136872456135e+000 1.0706883135315994e+000
      1.2780328842751012e+000 -7.0578985261933358e-001
      -2.4180901161899090e-001 -9.9641894138286377e-002
      -1.4609327546528839e-001 -1.1011253745505811e+000
      -1.6992979113942666e-001 9.9166869936114344e-001
      8.8864240888007675e+000 4.2695889476742277e-001
      2.2962131381916623e-001 -6.9285106331716229e-001
      -8.6474327567124420e-001 -3.5529812592605908e-001
      -3.4024885381060493e-001 -3.8212832526493390e-001
      3.2349614607040428e-001 7.9630262223190196e-001
      4.9707507417179569e-001 -4.2811238928581585e-001
      5.7249735086303299e-001 -2.7361321364913466e-001
      -1.4104785059892799e+000 7.9503321120389647e-001
      1.1698183274790940e-001 -5.7578408757390487e-001
      3.3341318798772512e-001 2.3493043062876989e-001
      4.4115864752023368e+000 -2.2507615231656883e-001
      1.1529618522870359e-001 -4.8173527916901010e-001
      -2.0813285225885624e-002 -1.5012999906666710e-001
      8.3350829205194465e-001 -2.1561325513892927e-002
      6.1539826942822606e-001 5.2453051242226068e-001
      -1.5077304492016083e-001 2.3807146525873631e-002
      -6.4174938151919256e-002 -2.6133620847266409e-001
      -6.8983255055885415e-002 -2.8661832265972603e-001
      3.0585696200987883e-001 4.0789647005750973e-001
      -3.6795392791689024e-001 -5.1528544126533093e-001
      9.9984938590172423e-001 -1.2561017931354604e-001
      6.2707823727685658e-002 -3.7325837729592123e-002
      -5.7377030969190584e-002 -8.3086929593043507e-002
      2.4696706072475497e-001 -2.2676163850326767e-002
      3.5017747093096172e-002 -3.2920352026019253e-003
      1.1073962551484709e-001 3.5553823457750863e-002
      7.4750769938561126e-002 -7.7804500408343552e-002
      -5.2470329644884683e-002 -3.3532496801264397e-002
      -2.4190009256514690e-002 -1.4022650477300261e-001
      -9.1992381066744747e-002 8.5574873466282897e-002
      -1.4257625186017068e-003 5.5168519412823122e-003
      -1.8061763915190369e-003 1.7032224623014412e-003
      2.3594159256896865e-003 1.8592673596429108e-004
      3.2914397348493721e-003 2.1038165687626794e-004
      -4.1822894284476277e-003 -1.0799783707735708e-003
      5.3353565453385384e-005 -5.6875387305645808e-003
      5.4067768200981373e-003 -7.1921055926128918e-003
      -2.2643815521316457e-003 3.7761524601828355e-003
      9.2585079813907337e-005 6.8092874729780593e-003
      1.8049479347927535e-003 -1.2245182581204456e-003
      -4.4211959908100479e-003 2.9336688335677864e-003
      -5.4789353123514749e-004 -5.0210437198189208e-003
      3.7416091713533828e-003 6.9809959078020872e-003
      -5.9061464564823581e-003 -8.0831665743482470e-003
      -4.4464621111505427e-003 2.0064900977144395e-003
      8.8074256531418024e-004 -7.2361563784247962e-004
      5.1967969676874979e-003 -1.7897873947776751e-003
      4.1077082617700447e-003 -4.6432190897833679e-003
      2.8150707970491062e-003 -7.2188095805695036e-003
      4.7829759499808571e-003 -2.1793447080495042e-003
      5.9225395323642738e-001 -1.2161245213491878e-001
      5.8619123196871077e-002 -2.6859243391409653e-002
      -5.6198584829887259e-002 -7.2364726903125884e-002
      2.1517137644631881e-001 -2.8972015649393477e-002
      2.8704228851581959e-002 1.9310860495426792e-002
      9.4704127220875969e-002 3.2556192312696942e-002
      6.0157309715628479e-002 -7.1253662299993942e-002
      1.0299673627964032e-002 5.6691033462637395e-002
      -1.9224563052750495e-002 -1.1394954507957693e-001
      -3.3492245890067808e-002 8.1093865330171017e-002
      3.7595764455038432e+000 -2.0179677847973693e-001
      1.4110202730428298e-001 -5.5680990035596745e-001
      4.8542463469092345e-001 3.1804894192496841e-001
      5.8855764531651880e-002 -1.9048196000071013e-001
      2.2681425763971197e-001 2.0151559814355449e-001
      -1.0703669421812879e-001 1.5519834465763088e-001
      4.2263930412261030e-001 -5.5538390415476112e-002
      -1.2096244163903977e-001 -2.7410503497183553e-001
      7.9700983694596633e-002 -4.6123065453339251e-001
      -1.2956579588604383e-001 1.5672802552247014e-001
      8.4321839488208514e+000 2.6038027812097042e-001
      8.0476282200970140e-002 -6.3857439417475126e-001
      2.2056496609776860e-001 -1.6410524966913648e-001
      3.7894998371850797e-001 1.1257067109609845e-001
      -2.3541594478586014e-001 6.8082588681376843e-002
      4.0078854522236512e-001 3.9818078470351986e-001
      4.0681329618508605e-001 -1.6343006629045895e-001
      2.8693202816650439e-002 -3.1284030703950111e-001
      -5.7539837185459253e-001 -5.5223317697229801e-001
      9.3612845021414359e-001 1.2555670160666127e-001
      6.9651511531515293e+000 2.1809233018123519e-001
      6.8764740844226246e-001 -2.9968790607452195e-002
      -1.1819575207347941e+000 -5.3362752335009800e-001
      -4.8160553479098817e-001 1.4091757042778956e+000
      7.4646198766910275e-003 1.4407002434072688e-001
      -1.4712287264592960e-002 3.3451049348295187e-001
      -1.6169196343071057e+000 -1.7659953074737635e-002
      5.6364374702783659e-001 -7.0640019215520777e-001
      -1.8439580671508379e-001 -4.9951995708250591e-001
      -1.9621974700973635e-001 3.6495168299850017e-001
      5.8856528659192797e-001 -5.6192390687151084e-001
      3.2710955525366026e-001 -5.8789943124834387e-001
      -1.2984900048027355e+000 -4.6924152431659694e-001
      -2.6245474696737620e-001 6.7121819962858931e-001
      1.6945509050904625e-001 1.3751531216753762e-002
      -9.8901303658923870e-002 8.4346658718779416e-002
      -4.6890669720166822e-001 -5.8336814439454698e-001
      6.3214144244150905e-001 -1.2546607768822171e-001
      1.5959956072874812e-001 8.2604585846687201e-002
      5.3748315516675971e-001 7.7268395236294352e-001
      1.3263975031696709e+000 -2.0053253365381335e-001
      9.2963447628603882e-002 -1.4636121234144600e-002
      -1.1330605837911923e-002 -3.5496208056199413e-001
      -1.1028504477380154e-001 4.0245804089923626e-001
      2.6229527571369793e-001 3.8177232200840999e-001
      2.5700024355232309e-001 4.7356238474331203e-001
      2.8962961030910367e-001 -4.7567600299247959e-001
      3.2074515412147481e-001 -2.7570125773772647e-001
      1.0558872116452391e+000 1.1900993010802161e-001
      5.9397522366442190e-001 7.8876409778108370e-001
      4.6985905181850629e-001 -1.5434377431729199e-001
      2.5701968868739039e-001 -5.0687493271263817e-001
      2.0121067976303841e+000 -9.2089606755558562e-001
      -3.9102276072371434e-001 -5.1750468524628745e-001
      1.0180005145058355e-001 2.0386256260167129e-001
      8.4650732284643773e-002 7.8485026517733203e-001
      2.3502407969109892e-001 7.6000086631416197e-001
      1.2233522277813438e+000 -3.4939643415353189e-001
      1.2943986431097290e+000 8.8696908084575629e-002
      1.4790773109403490e+000 3.2874684714731189e-001
      -5.2981074575921738e+000 -2.5408472003535254e-001
      4.4484794950473389e-001 3.2617378025314492e-001
      1.0737981425116025e+000 -3.5043968045810103e-001
      -3.0969404441532250e-001 -2.4493179161059397e-001
      -7.6344241244054811e-001 1.1514728208760673e-001
      -2.0108340719580309e-001 3.5328225999273133e-001
      8.6509950039777517e-001 -2.7799765021522804e-001
      4.1596189574563963e-001 -7.6833260399449599e-001
      3.3099707595204297e-001 -7.2564702612755480e-002
      1.4171576736360811e+000 4.4992380864090903e-001
      1.7840419649037489e+000 -1.2786533421795590e-001
      -4.0853427854463203e-001 8.1184180333548055e-003
      -9.6037619021786491e-001 1.7396398975110605e-001
      -1.1334346329315780e-001 1.6800245452358780e+000
      -4.1929077668435683e-001 -2.4225419894588876e-001
      9.2780883646411003e-002 3.0613772072899537e-001
      4.1365772534400963e-001 -8.6290517335999373e-001
      2.3194719944804634e-001 8.5385336025259528e-001
      -2.4351632452769456e-001 -6.6173473964054371e-003
      -1.5435420985304779e-001 7.6767250991566005e-001
      1.9668572253684356e+001 -7.7631841709724890e-003
      5.2849507916554883e-001 2.4707667126837246e-001
      -8.5928743325003842e-001 -2.3187362494040559e-001
      2.7656758069635173e-001 8.4560961067106155e-001
      -7.4325805481255791e-001 -6.8940073952659275e-001
      4.7616785559190078e-001 1.2305048218845467e+000
      5.3094939303460009e-001 -1.2770020414065084e+000
      1.1474866744162333e+000 3.3469691924412354e-001
      -4.7539550797325264e-001 -1.0450724008415964e+000
      -2.6882490635095618e-001 4.7980100506541162e-001
      1.1404414950062428e+001 3.6876766241134873e-001
      4.2192542832278618e-001 2.1736789370403597e-001
      -2.1385375816680496e-001 -6.8718421766766546e-001
      -4.6243864462313683e-001 -4.3852672393864436e-002
      6.7320715682477439e-002 4.8929362076643911e-002
      4.6886029888316283e-001 1.5613021077728559e-001
      3.4560730343805601e-001 -4.5043137253160498e-001
      -8.5954265312693101e-001 2.5153335912954200e-001
      -2.2757971617426065e-001 -1.5155526217345544e-001
      -1.3032814503930687e-001 4.5044666169774139e-001
      4.3746693845091782e+000 -4.1879015725631014e-001
      -1.6837930378901905e-001 -3.0527353020671222e-001
      1.2084859158239727e-001 -9.2121082309237295e-002
      9.4924192714346078e-001 -3.4093646372200664e-001
      1.9029470106808438e-001 6.2423685594924250e-001
      1.7766301801769147e-001 2.7129413774193095e-001
      5.8785443480886587e-002 -1.8150378081661625e-001
      1.7218932603737389e-001 -4.0816268420055546e-001
      3.8621719071357735e-001 1.8703167293568346e-001
      -1.9474566237983085e-001 -3.5331443184787878e-003
      2.5939901205204258e-001 -1.1962744034985746e-001
      5.5106877776143696e-002 -2.2602723579773502e-002
      -5.8420910121552747e-002 -7.5696058245785819e-002
      2.0440477805832649e-001 -3.7883583668748055e-002
      3.2608881208912928e-002 1.0623976576783789e-003
      8.6780395689368781e-002 3.0660118480849295e-002
      6.7787024196158369e-002 -6.1826545109973874e-002
      1.1744209831685521e-002 -4.4531497281252226e-002
      -1.8053592612952616e-002 -1.1186481594671704e-001
      -2.6845670058998877e-002 7.5928495165625332e-002
      -6.5472996959903612e-003 5.9572192232105322e-003
      1.6099201793442906e-003 -4.3160035440629350e-003
      -6.6353777782526555e-003 -3.9925350096013633e-003
      5.2723809984146807e-006 -1.4135227617381233e-003
      -2.7486224536022157e-003 3.0600415738085206e-003
      4.4396168834214770e-003 -1.5119825890347646e-003
      -7.4460916992127304e-004 4.5704895481106520e-003
      -3.7402912322440519e-003 -5.8414272791197045e-003
      -4.3274056779828056e-003 7.1678633743386773e-003
      2.8560414194157114e-004 -5.0603328019124504e-003
      1.0753797596137081e-003 -6.9884788257360327e-003
      5.0416582508361679e-003 -6.5938843950145987e-003
      4.1239760253997511e-004 7.1559093204809779e-003
      -1.4969479347857783e-003 -2.8751998930577811e-003
      7.7262488102266289e-004 -4.2416564134833772e-004
      -4.6282070532803234e-003 2.2485934865230203e-003
      -2.0237930128575933e-003 3.4503607344600093e-003
      6.2066297983662568e-003 -4.7807705905827400e-003
      4.6491600326007704e-003 -8.7686052358081133e-004
      -2.4997503213768411e-004 9.7255869337597165e-005
      1.4186666489255118e-001 -9.4864215606332292e-002
      6.6694321945565765e-002 -3.3570556802936628e-002
      -5.1468802919987094e-002 -7.5901850054520020e-002
      2.2820856735936371e-001 -2.2344544182220885e-002
      3.7707627814869561e-002 7.7298375153520222e-003
      9.2345141611809081e-002 2.0347570997661938e-002
      6.2119451547420650e-002 -7.0077555955507589e-002
      -4.8993835258872145e-002 5.0899877175471044e-002
      -2.3897045209972458e-002 -1.2405219014092353e-001
      -9.4575331377352301e-002 8.2666332293786532e-002
      5.9281648502217887e+000 -1.7217683654551924e-001
      1.9509160387386212e-001 1.9397909638306132e-001
      4.4251703278216897e-001 -2.7007339899993338e-001
      4.4543664292291602e-001 -1.4677948969603513e-001
      3.0263680163867052e-001 2.3668670449755266e-001
      -2.6335855650161205e-001 3.3676391871870624e-002
      -3.4647257770818080e-001 1.3910399948875304e-001
      -2.8427919842771648e-001 -2.0060230820837313e-001
      4.8254739718270850e-001 -2.2661857791198109e-001
      3.1591050522736405e-002 2.7428860303014219e-001
      1.0805484672514572e+001 1.8376907785399219e-002
      1.4444012337517789e-001 -2.0718537667920131e-001
      -2.2244665804235680e-001 -2.7626897295166425e-001
      2.4871186965328904e-001 -2.1913525958230526e-001
      1.4822764595862487e-001 -5.8256618036993293e-004
      -1.9987894137081844e-001 2.0261580484757537e-002
      -3.3390603404127395e-001 3.2568691281252998e-001
      3.7520552301682825e-001 -1.4631171075787944e-001
      2.7854709866603056e-001 -3.0170209762241723e-001
      -2.3648059743238853e-001 3.8432999185577861e-002
      1.3653009940212124e+001 -4.5922697955572966e-001
      2.6015058978128641e-001 1.8025850511257721e-001
      -9.2297546613945469e-001 -7.3872795132356811e-002
      -4.3439635342874740e-002 2.1530334787839248e-001
      1.8378325720141653e-001 1.3065339520651845e-001
      5.1434239461319597e-001 2.1472191586612396e-001
      -1.0505467052735580e+000 9.8064969228917198e-001
      5.0125036605261741e-001 -3.7446266535640188e-001
      6.2117752718157493e-001 1.6431195455497281e-002
      -3.7878349943476092e-001 1.4173892764485363e-001
      6.4054793508915253e+000 -6.2737741975939698e-001
      -5.9658216720846136e-001 -3.0347291782160257e-001
      -6.1055813434398742e-001 -5.9842631751608144e-001
      6.3480558370316120e-001 -5.5802194856248832e-001
      6.2150152656354360e-002 2.6117879815045458e-001
      5.8588007627541605e-001 2.8266041266910225e-001
      2.2509484467424340e-001 3.5138542284606933e-001
      2.0777551263917579e-001 -5.1685052460804171e-001
      -6.7229697842869052e-001 7.7447374853303863e-001
      4.8472149583692899e-002 6.5349681635166523e-001
      8.8644172206348983e+000 -3.1407985572386943e-001
      -4.4663084515768636e-001 -1.6343619874205423e-001
      -3.6420368950099197e-001 -6.2359240626010326e-001
      1.0977453911600196e-001 -1.5209284040788867e-001
      -9.6533588386621766e-002 4.1309330703251634e-001
      3.0337069938426563e-002 6.2356155548231561e-002
      3.2796695407097526e-001 2.5774084886161869e-001
      6.3117648863245279e-001 3.5165781124613860e-001
      6.4338794417415102e-001 1.4054281636895716e-001
      5.4875902729916670e-001 -1.4951743089077887e-002
      6.7958890063697002e+000 7.8052774107574413e-002
      -1.7935256818607043e-001 -4.6069001691700329e-001
      2.0415049314452666e-001 -9.2224322540840942e-001
      -7.8334631646871059e-002 1.0714253644423014e-001
      -2.3226799819424737e-001 -6.2766414198585063e-001
      -1.1330777059574808e-001 8.6597444110251864e-001
      4.4393508215301924e-001 -1.6119077435160595e-001
      1.1005412805974923e+000 -7.4874681927552714e-002
      9.6089702525404797e-001 2.0049897651706569e-001
      6.8711468503013895e-001 -1.9309806335511126e-001
      4.3281641094862175e+000 1.7493450668285560e-001
      -2.1616722686035572e-001 -2.1651548731060211e-001
      1.4833319010619255e+000 -1.3962546827307543e-001
      1.8290391121161953e-001 2.9815453666199265e-001
      3.1156137936561795e-001 -3.5411879319552564e-001
      -7.3895002861489145e-001 -5.9936691059740899e-001
      3.0554702260592551e-002 -5.5980795359731883e-001
      3.7583288871084841e-001 -7.8832906129872471e-001
      -2.7104119115269154e-001 9.5721889084435452e-001
      3.1135143087976436e-001 -8.7305155808016788e-002
      8.6474440631878746e+000 9.2362694878704066e-001
      -3.8220070798363925e-001 -2.9648706866740648e-001
      7.9691710747134492e-001 1.4397359124933298e-001
      -2.5275419978569175e-001 2.0091224127748841e+000
      -6.0396061435318504e-001 -4.0960640928337738e-001
      3.2660925794992951e-001 -7.6728488258311356e-001
      -7.5162160085146312e-002 -1.0401819475605556e+000
      5.6830589360813966e-001 -8.4114647334006831e-001
      5.7262585338780447e-001 7.1728293966412193e-001
      -5.5008289714822234e-001 1.6665396047678097e-001
      2.3796271886911814e+001 4.1941684910326932e-001
      -4.3454581783973922e-001 3.3257120500137738e-001
      8.8646646443910282e-001 -1.3077986170145264e-001
      3.8539247259257603e-001 1.6378453725205495e+000
      -1.3223720324294738e-001 -1.1608188078371957e+000
      1.2020268026749961e+000 -1.8850898380263548e-001
      -6.3516008841042149e-001 -2.2257115116765111e-001
      5.3111761206571917e-001 -1.2742372796040131e+000
      -1.7164112657266695e-001 3.7241777273782867e-001
      -4.2610954896356190e-001 -2.0452623712083045e-002
      1.5124159231153559e+001 5.6509632959744927e-001
      3.0371763380618305e-001 -1.8104211282617466e-001
      6.6212096682174848e-001 1.2141732401450707e-001
      2.9242658839570940e-001 2.2105122919969783e-001
      -1.2363436374593878e-001 1.9666263810689782e-001
      5.4068240704144610e-001 -9.9625218151098871e-002
      -3.8986514354457664e-002 2.3645906948689818e-001
      -2.4651832452827077e-001 -2.5935076515904465e-001
      4.6048183710212104e-002 -3.5999147421785831e-002
      -1.0664743867055173e+000 -1.9255467731328940e-001
      4.7223031647978555e+000 -4.7500604589062073e-001
      -1.4824818467218354e-001 6.1331445756464675e-001
      5.3505703057292582e-002 -2.6549374429142536e-001
      7.4888659822278525e-001 -3.5976115543850468e-001
      2.6045589558979936e-002 4.0235277029723709e-001
      9.2107015746490203e-002 1.0949429233310802e-001
      -3.1521415830803874e-002 4.6440506568903323e-003
      6.5685455861032860e-002 -1.8795066422393900e-001
      5.4273985714154682e-001 2.4829695929095266e-001
      -2.2948592928469141e-001 1.6120360701416681e-001
      1.2056101016651326e+000 -1.2480784290112913e-001
      5.9365909061595966e-002 -3.7298560568814129e-002
      -5.9202370408297726e-002 -7.0819453337725935e-002
      2.3207611539725440e-001 -2.9860060428400805e-002
      2.8410925538468437e-002 -3.8467808868064210e-003
      9.8868620490968492e-002 2.4038397718402445e-002
      6.6704701513677578e-002 -6.9085092455753297e-002
      -2.2097019685327034e-003 -1.5772582344204117e-002
      -2.1225875141349066e-002 -1.2738918371935654e-001
      -9.1523467130579083e-003 8.4689718525855925e-002
      -4.5712604646097246e-003 -7.8293279862207132e-004
      -8.1853312727137582e-004 -2.7109578304052124e-003
      -5.8273636861564245e-003 6.8386779227462063e-003
      -4.7593539946749561e-003 4.1206936075571850e-003
      3.7596414106141765e-003 6.9535615995593497e-003
      6.3224719360327527e-003 -3.0028355225404503e-003
      6.5852540568221629e-003 4.5048901762417218e-003
      7.1789346444894875e-003 6.5037351057092314e-003
      2.9900255346363793e-003 -6.8037844993451839e-004
      2.6437591619334240e-003 2.6197642357515725e-003
      -2.7496262950981979e-003 -2.5751159993999801e-003
      2.3584703999897548e-004 3.6156677871118379e-003
      -7.0909229909549903e-003 4.0006763865888337e-003
      -5.9452976215881555e-004 6.1421250519846904e-004
      2.9065732705743440e-004 7.0830862478490830e-003
      1.5099076685665068e-003 6.0205129654332234e-003
      -8.9954457586990564e-004 -6.1011931697425416e-003
      6.6857586502456585e-003 5.8555715089710220e-003
      -2.7743437014708447e-005 -5.2520010805398067e-003
      -4.2824527384796550e-003 1.5928856720319642e-003
      -1.5577461462619169e-001 -9.3318785586568337e-002
      6.8900213386932183e-002 -3.6076946117891459e-002
      -5.6813439325825693e-002 -7.9134961687598801e-002
      2.3042348631297102e-001 -2.5073169698348833e-002
      3.4614740114885530e-002 1.2369367735126077e-002
      9.9574760928611075e-002 2.9220747874013599e-002
      5.9964991439392885e-002 -7.7118174388816255e-002
      -8.0876943960500047e-002 3.6018804975202053e-002
      -1.7388314439245496e-002 -1.2173881480335594e-001
      -1.2372727993345155e-001 8.2414452290497167e-002
      8.3422831142757854e+000 -2.4050710874950984e-001
      -3.9201355385360674e-002 4.5749861414280002e-001
      3.3487654269212652e-001 -1.7840855660920518e-001
      8.6307449667588243e-001 -9.1930187533645815e-003
      1.4341287651823070e-001 1.0403899786913728e-001
      -2.9883520120189361e-001 2.4199974845047678e-001
      4.2789704384639728e-002 3.9292200799999172e-001
      -3.2050103271612851e-001 -3.3067695797342417e-001
      2.3743146211809493e-001 1.4165164558269400e-001
      1.3206196343551282e-001 3.2095558708363681e-001
      1.2400172770310938e+001 1.3496902815259901e-001
      6.3020658870683732e-001 7.5700499030325025e-002
      -3.8023169603023332e-001 3.9274554411266774e-002
      8.1176802813860208e-002 -1.1084503302476869e+000
      7.1938367723696617e-001 -1.5950095704509940e-001
      -4.7678812930483072e-001 7.2406015600780049e-001
      -3.5939086483217969e-001 -1.0955602755416578e-002
      2.8889566748664639e-002 1.3523119955632804e-001
      6.7533064266978238e-001 -3.0190411746114940e-004
      -3.5066117941668068e-001 2.8280893864822498e-001
      1.8133304305653759e+001 -3.3291057066480517e-001
      3.5700431837176382e-002 -2.2238846541020080e-001
      -8.3338266089526147e-001 3.1997218882871936e-002
      4.0918186356487224e-001 -6.0360059455593695e-001
      3.4120414238205093e-001 -7.1444250171297477e-002
      6.0518836497606053e-002 -6.0447622981783078e-001
      -1.9781519458706123e-001 4.3476329007288061e-001
      -7.0220426716942341e-001 -4.6487312950186954e-001
      8.8565971203950533e-001 4.6594319074953150e-002
      -2.0779302632303969e-002 6.9949416521913377e-001
      1.0358762051737612e+001 -5.9142804243992009e-001
      -9.1598665816953151e-001 -2.3019886391558486e-001
      -8.4908060188787127e-001 -7.9762168355940255e-001
      8.1475558829172701e-001 -1.8595021904643647e-001
      6.3538279048612734e-001 1.9853250164968733e-001
      -6.8592910723874634e-002 -7.6273916492146465e-001
      7.7019620341959316e-001 4.6213108133283837e-001
      -2.5329799849213269e-001 -9.5596091602669742e-001
      -3.1083429760526338e-001 7.1296866856881269e-001
      -4.1727761783643408e-001 5.1013065699135141e-001
      9.6186475460014460e+000 -5.3402955380374795e-001
      -9.6503851430408361e-001 -1.6252462186015590e-001
      -1.5650615038529139e+000 -8.2089816366037394e-001
      4.5375792191205261e-001 1.2746755247964053e-001
      6.1880724133208653e-001 1.3847527444910068e-001
      -1.7155936312613490e-001 -1.4666679803670052e-001
      2.7362124834263518e-001 -4.6460532557753698e-001
      1.1902180646403151e+000 -2.2483323991525453e-001
      3.2601028044770708e-001 -1.4195240110977522e-001
      1.7921713789537652e-001 -7.4004760804188066e-002
      9.2217572434114956e+000 -6.4546968215613384e-002
      -7.4285760609736173e-001 -2.8974047359680360e-001
      -1.3585006782314974e+000 -7.1955908828191162e-001
      -5.1020147796901871e-001 1.8554847230882994e+000
      3.0949117430913742e-001 -4.6738556794511654e-001
      1.4388314225148094e-001 7.4874959921571937e-001
      1.7960010735948215e+000 -1.1098128428274754e+000
      -3.6254605488561725e-001 6.5508069153905091e-001
      1.5377052710529060e-001 8.3283089835223756e-001
      3.1202461619666144e-001 -5.9928749306002915e-001
      1.0195182200011985e+001 1.6637012287629788e-001
      4.2701254224817492e-001 9.0268706485191985e-001
      1.1266872976642079e+000 -1.3753900683521819e-001
      1.1910565178811770e-001 1.4637029654787210e+000
      9.5582220557496178e-001 -6.1613931424772794e-001
      -4.3251326401338397e-001 -3.7672134706022475e-001
      6.7918943369343787e-001 -9.4814698383972240e-001
      -7.2446508351550309e-001 -4.9863608246390306e-001
      -1.0145481786726924e+000 1.1653249131655345e+000
      5.4125648563688893e-002 -8.6087826470269280e-001
      1.0356474766035404e+001 9.0164468169725720e-001
      -3.4403186770653188e-001 9.2299869243581045e-001
      1.2420265380180067e+000 -4.2740133848137762e-001
      -2.4969906865338090e-001 1.5645296694693402e+000
      6.6954603180923289e-001 -6.5473020558735706e-001
      3.9731476093886808e-001 -4.7218915615205465e-001
      -5.9304002677641299e-001 -3.3518471150555706e-001
      9.0209946417336362e-001 -8.2073071919474683e-001
      -7.4849231738479227e-001 1.0471863479534718e-001
      -1.8151845327957702e-001 -2.2139457530827741e-001
      2.0843839162639213e+001 1.8767344570843975e-001
      2.3448657852259507e-002 1.2827604798733772e+000
      1.1440917867364770e+000 -4.0751208445972764e-001
      1.5418512157661887e-001 7.3580386982102997e-001
      6.8121686280492966e-001 -6.3994222101713438e-001
      1.0189217870078107e+000 -8.1034999171477096e-001
      -9.7841679663546910e-001 4.3792039271030569e-001
      -2.5046852556117016e-001 -4.7667100126802209e-001
      -1.0190459044071114e+000 -6.6905979636162669e-002
      1.9938723339090680e-001 -7.4544760117539632e-001
      1.4513372006288190e+001 -1.2114464356482731e-001
      -2.0485251248540974e-003 -5.1637312831179352e-002
      2.6653829963766383e-002 -2.0134700039268671e-001
      2.6181948879829053e-001 -5.6245374452875363e-001
      2.5265020494690127e-001 4.2970522240784004e-001
      5.4541388690171588e-001 -1.9480281267685357e-001
      4.7811679630535303e-001 4.9112954818346233e-001
      -2.0479334854184311e-001 -1.9991785659657477e-001
      -2.7488035684803319e-001 -4.5831387396325163e-001
      -2.2376006587609257e-001 -1.5047057338842700e-002
      5.4484568408268936e+000 -3.7285480422441808e-001
      -9.0548822167852885e-002 3.1678316386490851e-001
      -4.8961031813395299e-003 -1.9404981444035238e-001
      7.8340781365051848e-001 5.8466184229468532e-002
      2.7420574307609719e-001 1.4407456719308573e-001
      -8.8846095364104025e-002 2.0377838823472991e-001
      9.9235714183174298e-002 -1.6487922512988828e-001
      9.9883382657755676e-002 -3.5829207917116301e-001
      3.8078766247740958e-001 2.5790069236900603e-001
      -5.0423172306408671e-002 6.2001180456439028e-002
      1.4622791346942614e+000 -1.1668365179498102e-001
      6.9294529699046009e-002 -2.9676593461503600e-002
      -6.2311288925898843e-002 -7.2801316875409958e-002
      2.2967471894005584e-001 -2.4207833351318937e-002
      4.1154138264375237e-002 1.0786545750280188e-002
      1.0529145426931391e-001 3.0479047053477704e-002
      7.3334385860790344e-002 -7.9825135725945837e-002
      -1.8284284630075867e-003 -3.7996850798349769e-003
      -3.0486265167643582e-002 -1.2540840437262207e-001
      -1.2300581886684571e-002 7.2121016875958982e-002
      -8.9131514946384869e-004 7.3012977955724942e-003
      -2.1783063014151711e-003 2.3841469567952821e-003
      -6.9009375248491218e-003 -2.2211926401724891e-004
      7.2033230827366571e-003 -3.6822947126136795e-003
      -2.7903654986313831e-003 -5.7446341697196318e-003
      8.7428804125350081e-004 -9.0462526284267074e-004
      -6.1391769689581859e-003 -6.6947299685487021e-003
      -1.5591295400731837e-003 2.8758360798585344e-003
      -4.6089160289601383e-003 -2.7116363925834865e-003
      -6.3042826835838220e-003 3.8433218933961268e-003
      -3.3553936180160350e-003 3.4429606175518956e-003
      -3.8427522913368328e-003 -4.7788191541051593e-003
      5.4355950073748662e-004 9.3814841363667816e-004
      -5.7137295813619734e-004 2.2128366214650298e-003
      2.0495141880799111e-003 2.3133606329006459e-003
      -6.6463494493989965e-003 3.3037235724911883e-003
      -5.1060226741074678e-003 4.1436228601114738e-003
      -5.9526946379757882e-003 3.6510628980636005e-003
      2.8934272882625623e-004 -7.1430191810151911e-003
      3.0371093862086251e-003 2.2913281183048570e-004
      -5.2278862701885531e-001 -1.1287409514962383e-001
      6.0872262960704332e-002 -3.2637058190710194e-002
      -5.9977865289684608e-002 -7.2569730733906102e-002
      2.3366370624194710e-001 -1.7622645064414282e-002
      2.8901898148198345e-002 1.8354647687911754e-002
      9.6586317343781092e-002 3.2636890411347062e-002
      7.0262245333162540e-002 -7.6897150964168284e-002
      -6.1372886893856067e-002 5.1602429274462833e-002
      -2.8008509915517735e-002 -1.2237396965278045e-001
      -1.2732916134511640e-001 7.5147337940564815e-002
      6.0660924721058729e+000 -1.6878365019183655e-001
      9.3370386185927211e-003 1.7102701904130219e-001
      4.9458202491449402e-002 -3.2069378350814132e-001
      1.2234654992185163e+000 -2.8780970836921149e-001
      4.6004090893261118e-001 1.9785564713503379e-001
      -2.5352976743018873e-001 3.3086930438592588e-001
      -2.9772414629352203e-002 -6.4502260188799426e-002
      -3.9049422657292582e-002 -2.7286095366201768e-001
      3.7720179942495868e-001 1.0878387085682700e-001
      -1.2523960014092775e-001 3.9545584392011163e-001
      9.8606624312956566e+000 4.0034172904504373e-001
      4.4899730978016028e-002 -3.1508356428988038e-001
      1.5324336381444492e-001 3.8767166897261817e-003
      1.4903575147498341e-001 -1.0671803721218369e+000
      3.2715070795453050e-001 7.9887670079277870e-002
      -3.5727929388329227e-001 2.3208647361520277e-001
      4.5909401103985940e-002 -1.2878910991788312e-001
      2.2982357500295941e-001 7.8148828163321582e-002
      -1.5564679228477427e-001 2.6151960684738024e-001
      2.2329794756732257e-001 6.3477357800362100e-001
      1.6983889382024792e+001 -3.1737188894236196e-001
      -2.5605005448954932e-001 -6.3821277161853396e-001
      1.0901270340021902e-002 1.7318013154800144e-001
      6.4095596305264313e-001 -1.1938163424042820e+000
      -4.3714824108764416e-001 -1.0454753739500905e-001
      -1.5582891149884900e-001 -3.0376199591041358e-001
      5.2777027625816486e-001 5.1177254025671004e-001
      -8.2576079408451700e-002 3.3792976418215753e-001
      6.2077132670662794e-001 -7.4803294742915805e-002
      1.5064702930645937e-001 1.2027839813583034e+000
      7.5088588780961070e+000 -5.7358027648417487e-001
      -4.2040112531498586e-001 -7.4308775083252321e-001
      -8.7724340820116631e-001 1.2750074428782129e-001
      -9.0057286488995136e-002 5.0476447551999770e-001
      2.2849782227772353e-001 1.9894216451631619e-001
      -4.0344831100766421e-001 -7.5101351623738399e-001
      9.1653184079884686e-001 -3.4095729881054843e-001
      -6.1404891809482753e-001 -9.4200868945037708e-001
      -3.5395468258138485e-001 2.5211658101226342e-001
      4.7682660329860505e-001 -1.1931575153960650e-001
      2.4630774804604845e+000 2.6125406296811191e-002
      -6.7517413627055511e-001 -3.6605420544786044e-001
      -6.2887168675881178e-001 -3.8345065620436575e-001
      1.3538852490953671e-001 6.4983883556624666e-001
      -1.9751812584429179e-001 -2.2314021101066622e-001
      -5.7602759595758812e-001 -9.5837972585119502e-001
      -5.2986359377461978e-001 -8.8906053308813648e-001
      -7.0596511372915594e-001 -4.5594122569097995e-001
      -5.9510272057001490e-001 3.3164116935330784e-001
      -1.9581654111102992e-001 1.0004152121709466e-001
      -1.7487166088472053e+000 -1.1813849828941523e-003
      -8.0412959682075014e-001 -1.3732276988603116e+000
      -1.2232858531177198e+000 -2.5176262458125886e-001
      -6.3131143264646927e-001 7.3872653938586852e-001
      -5.1549095074121265e-001 2.0919794641659142e-001
      3.3716478527513766e-001 -3.4418909047927521e-002
      1.2019456773866191e+000 -1.6576165944772983e+000
      -1.2013926498816954e+000 5.6688645703347829e-001
      -5.3949461527528697e-001 7.2326202834605846e-001
      -6.1668652285641290e-001 1.1945741504929391e-001
      -1.6371792940818690e+000 1.2507235951470519e-001
      7.2196898598739612e-001 7.1219978013956231e-001
      -2.8361597762253854e-001 -3.2016641728706002e-001
      -7.9084288464933705e-001 6.1822893964991421e-001
      1.2819938951769432e+000 4.6700660557163781e-001
      -3.8345867726623228e-001 1.7890204308792446e-001
      4.1142084316591835e-003 -5.9887039842120948e-001
      -1.1144931813716039e+000 4.2589215505381271e-002
      -3.5427893619216266e-001 8.2055862475096319e-001
      4.6752956659486850e-001 -9.3860842316033477e-001
      2.6334707348198725e+000 2.9792633269961805e-001
      3.9314217183714428e-001 1.4803537342158135e+000
      1.6853679129869520e-001 -6.1692294006515791e-001
      -1.3042882017889212e-001 4.3687797477836449e-001
      1.5284239358452527e+000 3.5492406321069481e-001
      -4.4378640840352090e-001 -4.8820893699109763e-001
      -5.5366797103878129e-001 -3.6680261954924831e-001
      -3.6248039996988818e-001 -6.2593017139317017e-002
      -1.0740997663695639e+000 -3.9656531121884409e-001
      3.5862637926713026e-001 -4.7266775727905702e-001
      1.8467515089168256e+001 -1.2013169215360125e-001
      9.5200834577492635e-002 2.2430241670360940e+000
      4.6004619437764205e-001 -5.4582999484126848e-001
      -6.5717653197690107e-001 -5.0631436969731958e-001
      1.9374049011456602e+000 3.2848879195724012e-001
      1.2292374838783189e-001 -9.6805946181571823e-001
      -1.2476659834702968e+000 -2.3464713197979296e-003
      -9.0464380262986255e-001 4.6219075375034646e-001
      -1.6208007751919837e+000 -6.4519982787069019e-001
      7.0516552910466590e-001 -1.3234729483758485e+000
      1.4370710199109517e+001 -5.2398282256542372e-001
      4.5464678625280680e-001 8.9333909679449847e-002
      1.2152543280876420e-001 -4.5863321064027590e-001
      -4.9098142483198406e-003 -1.5830456415117298e-002
      2.7661138043039113e-001 2.8086617812868286e-001
      2.2728482711158102e-001 5.4260472792336804e-002
      3.4565607704681894e-001 1.1927186246748742e-001
      -5.8094250875497033e-001 3.4580495231471070e-001
      -1.9857641841408241e-001 -3.8316276173568570e-001
      5.9548027314874463e-001 1.8863120858975965e-001
      5.2553542507301172e+000 -3.4170667257223103e-001
      -7.9686363469585700e-002 4.2815531597891204e-001
      1.1797196111565218e-001 -1.8080446088033175e-001
      8.1232202094732719e-001 -2.6223055636265789e-002
      1.0465419724955556e-001 2.4516324214288984e-001
      -1.2111873612978316e-001 2.5908176860566523e-001
      1.9793170058794968e-001 -3.5003989348363612e-001
      1.2957772417377786e-001 -3.9144689652527626e-001
      3.7899161357390199e-001 1.8509830729987531e-001
      6.5772107803412069e-002 -2.1255484098854586e-002
      1.4225821738384405e+000 -1.0008953925724146e-001
      6.8043237723384414e-002 -2.5151313828975824e-002
      -5.6008363049962699e-002 -7.7338958700936891e-002
      2.3084312116642325e-001 -2.3881109680513397e-002
      2.6021511873178232e-002 3.9185439663384147e-003
      9.1304302145069849e-002 2.0661786327087522e-002
      6.5651057158593040e-002 -7.5963312896052945e-002
      -5.8319430385721646e-003 -7.9802235245884940e-003
      -2.5100897902192415e-002 -1.2626244865473082e-001
      -1.6827738746000225e-002 7.2603216713486296e-002
      -2.2752849973748405e-003 -3.0093319818042826e-004
      5.4241145602485861e-003 -2.3944307873014856e-003
      7.5554876431419126e-003 5.6597126058831144e-003
      -7.3847237283150707e-003 -1.3110703402528898e-003
      2.7681520933544343e-003 5.9510666128613065e-003
      5.9226813311563202e-003 -5.3506189106487211e-003
      -1.2042818442248896e-003 4.1207218358021436e-003
      -6.2936198290211125e-003 4.0935921830915898e-004
      2.4343281301362173e-003 3.3917624516329008e-003
      -3.4437641478240297e-003 2.3375729896549647e-003
      -3.8941067929753408e-003 3.8024678684319443e-003
      7.7111832071860586e-004 -2.9159617905850747e-003
      5.7400315313640990e-003 4.5071837452919710e-003
      -4.0457131973117974e-003 -2.7763478865554135e-003
      4.8443463360851521e-003 2.0734247206432199e-003
      6.3817493650624550e-003 3.4152979559192716e-003
      -4.3133636798587793e-003 5.8577493490139581e-003
      2.1184314095962224e-003 6.2525597488175978e-003
      6.2063453625771144e-003 -7.6221992364045362e-003
      -3.9901328470090735e-003 -3.0333903683402386e-004
      -1.3870936595668095e+000 -9.9509748668971498e-002
      6.3680087116078088e-002 -2.4662120527257747e-002
      -5.6286183700508120e-002 -6.8915087504950290e-002
      2.1717246915060254e-001 -1.8952050121992161e-002
      2.7136236859404150e-002 2.7043865865393479e-002
      9.5484698769968526e-002 3.2383586464362138e-002
      7.1288570398245488e-002 -7.4303182684089170e-002
      -7.2694864287957031e-002 4.2820957324903958e-002
      -2.1062951398565961e-002 -1.1962217589440922e-001
      -1.2187673183167096e-001 7.0141099246643968e-002
      3.1275398786247592e+000 -2.9679137051406490e-001
      1.3529557972353454e-001 -3.5025923195936665e-001
      -1.5100429574712682e-001 -2.2727348462619101e-001
      9.8784643199687594e-001 -2.3187755191610906e-001
      3.1339370264251049e-001 3.7389091903189446e-002
      2.4766253652906292e-001 6.2407924928819858e-001
      3.3291989384158432e-001 -1.3192342642938529e-001
      5.4922513921601683e-002 -2.4090737971370971e-001
      2.9497837411569783e-001 5.7921024884801303e-002
      8.1455806944444084e-002 2.4456171123211212e-001
      9.4627958516878117e+000 2.5350593209448713e-002
      -5.8441921378146977e-001 -4.2162939741372341e-001
      -2.5021858026235072e-001 -2.5927608904808130e-001
      1.4118134964698831e-001 -2.2852186909517877e-001
      4.1966059843441733e-002 3.3141507349506705e-001
      1.7538298676984176e-001 6.2690959417562275e-001
      4.2906154608762420e-001 -2.5942024473832526e-001
      7.9867440326584105e-002 -4.8794493611671813e-001
      -4.0563556867782441e-001 -4.5978397115690628e-002
      3.5997722910707730e-001 2.6619012770203965e-001
      1.1154667073523015e+001 -2.4193847933331145e-001
      -5.9046572338817704e-001 -8.3713754483405844e-001
      -4.3803883323727394e-001 -8.7222662857571898e-003
      2.1348159187766008e-001 -1.4638312177262223e+000
      -4.6343498941338745e-001 1.3026676288846192e-001
      -3.5694125072796534e-001 -9.5319923714138569e-002
      1.2149373096701235e-001 2.7189413496444342e-001
      4.0746811164461449e-001 -2.7337239302781163e-001
      -2.7104491969978645e-001 -2.2799404234055129e-001
      5.5088390426822520e-001 9.1588712188152388e-001
      3.6515926838148975e+000 -8.2258625963568799e-001
      -2.5229038101924051e-001 -6.6487156057294117e-001
      -1.2603869723342314e+000 7.2475597999647579e-001
      -2.2991852190751610e-001 -4.8989601562903168e-001
      -2.8711309798057177e-001 6.6259515348895004e-001
      -1.3471147818202951e+000 -4.1199171080046915e-001
      -4.5469541149687592e-001 -4.3414198038871488e-001
      -1.4631886170264299e-001 -9.8415305272120124e-001
      -2.3104775353419418e-001 -6.7382216759463387e-001
      1.7151854803695502e-001 1.9751124890799113e-001
      -6.9793269381140286e+000 -2.9017584569898902e-001
      -4.3463998362852879e-001 -5.4614836230991126e-001
      -8.8500412459774636e-001 1.6500707177787530e-001
      -2.4997141633050174e-001 -3.6712130141770227e-001
      -5.0743715850924331e-001 -4.0312933459003325e-001
      -5.8936937624580976e-001 -1.3962718322301169e+000
      -7.1345235740726942e-001 -5.8401873687215511e-001
      -6.2371930133859876e-001 -3.9661639240920643e-001
      -1.6321118818909763e-001 3.1589807878452303e-001
      -1.2683380417014136e+000 -4.3145786223990623e-002
      -1.0714348966909544e+001 9.9127412437325785e-002
      2.6691089509755656e-001 -4.9148725273164962e-001
      -8.3323220500148243e-001 -1.7130922224627379e-001
      -7.0869302923500399e-001 3.8671214192767184e-001
      -3.7676830588281379e-001 -1.9055850617906714e-001
      -4.8304043353212306e-001 -5.4342940855142563e-001
      -2.4868688229429758e-001 -5.1611166217381066e-001
      -2.1282831038437928e+000 -3.1494359166594360e-001
      2.7964094230241987e-001 5.8877819713619295e-001
      -2.2766470634304654e+000 -5.4654212428734243e-003
      -2.8377882937317147e+000 2.0861178440316414e-001
      4.1576279674210082e-001 3.7351935218295683e-002
      -2.2720634222698649e-001 -1.5736452560385225e-001
      -5.5917010881912477e-001 -9.3996362927143884e-001
      -2.7373993341436698e-001 1.9385628415736320e-003
      -4.5864978128147427e-001 2.5239164872543796e-001
      8.8443371642452875e-002 3.3619334847070448e-001
      -6.0740923357722854e-001 1.3102586458359589e-001
      -2.6086674718520741e-001 7.0880156760077972e-001
      -9.1317958527422205e-001 -1.1550311332400594e-001
      1.4817339512191223e+000 -4.1638581265458291e-001
      1.3194826417457858e-001 5.0956266074985401e-001
      9.4226963925421001e-002 -1.6460437044990761e-001
      -1.3871984170739865e-001 -4.5491813631483413e-001
      2.1336108192584377e-001 -1.6389973130819205e-001
      -1.9010386646586455e-001 1.7270608943907673e-001
      -1.9860137368459847e+000 -2.4362327422810418e-002
      -2.5773618166994805e-001 5.8958755653058870e-001
      -2.4769100843289305e-001 -2.5108102078789118e-001
      -4.4478949201880814e-002 -4.7070714909085765e-001
      2.4564131574197432e+001 3.4159324079380951e-002
      -4.9245668989318775e-001 1.5553708776425481e+000
      9.1868788788393574e-001 -4.6076353441371792e-001
      -4.8005714997892557e-001 -3.4685766901140579e-002
      1.7762630407892366e-001 3.3865118650909398e-001
      -2.8588634142279790e-001 3.0614402325879270e-001
      -1.4403660536748146e+000 5.7067544813839766e-001
      9.1652113722495843e-001 1.3239924966788401e+000
      -7.2192459379090645e-001 -5.6179971599507939e-001
      1.4749924091979921e-001 -5.9319287961402689e-001
      1.9468620721494677e+001 1.7530199003029473e-001
      4.4677054595683885e-002 2.0008121497420603e-001
      -1.4233614009402956e-001 -1.7085372351078917e-001
      2.4948102598730354e-001 -6.8242869140271112e-002
      -1.8409731205697075e-001 2.0635708687445301e-001
      1.3975013604201855e-001 8.2296896769384109e-001
      4.7179933048349260e-001 3.2629817714389019e-002
      -1.1282290404904642e-001 4.0855387317886066e-001
      -1.3546966888962511e-001 -2.4893804833343747e-001
      4.2298730172455301e-001 4.9186954938967553e-001
      4.7844965983926970e+000 -3.9466719595023653e-001
      -6.8844748975379302e-002 1.2649452866216471e-001
      1.5481178760284645e-001 -3.2884839703113256e-001
      8.9083661411932835e-001 -5.7086733951906804e-002
      1.5516589485456305e-003 6.9598980785748193e-002
      5.2391260879249522e-002 1.6108247940761700e-001
      1.3181260929553792e-002 -3.4165384611400001e-001
      3.8485530193055295e-001 -4.8165350370610505e-001
      2.4483628077572747e-001 1.7006537770705035e-001
      -3.9595008962322034e-003 -1.7566959836004109e-001
      1.4274993655230550e+000 -9.6701946117698792e-002
      6.4804292834443306e-002 -2.5897573931566428e-002
      -5.6344604713354451e-002 -7.9852398604071756e-002
      2.1780028838533202e-001 -2.8793229303584005e-002
      3.5857522745049851e-002 3.4919110237662783e-003
      9.2090043501575181e-002 2.1305774091721047e-002
      6.9422281206764733e-002 -7.8905434334504018e-002
      -8.5540978852924870e-003 -3.3264834621490450e-003
      -2.5248781467130051e-002 -1.2673006020167921e-001
      -1.1040597011195164e-002 8.3148742440160309e-002
      7.0902904069230889e-003 -1.2099176643871254e-004
      -5.9605805717142342e-003 -6.9421025839701027e-003
      5.3033889253986310e-003 -8.0235714569771134e-004
      -5.6507894472425527e-003 2.5952221829551041e-003
      7.5836549449084497e-003 2.2003286118787334e-004
      -2.4595964925907391e-003 1.0267166234467270e-003
      -7.2616534253055094e-003 -1.8268073599079424e-003
      7.2522389671650159e-003 3.9536321532200091e-003
      4.3631608187760136e-003 5.5346960167875353e-003
      7.9144048210416495e-003 -6.9757867731004971e-003
      4.3863605122147287e-003 -2.3325693964421066e-003
      4.5916445312842004e-003 1.4518730455643865e-003
      7.2785523107334431e-003 5.3828860217709591e-003
      -5.3241933990247833e-003 3.2346570706583756e-003
      -5.2726403970252888e-003 -5.3325451527057102e-003
      3.2015044661382135e-003 2.0589105603264664e-003
      5.6490435626591262e-003 -3.7264717346732926e-003
      5.2135419016287408e-003 1.7923597398628811e-003
      6.4683371692695500e-003 4.8123715440636329e-003
      -1.6941589148138732e-003 8.2171722472526142e-004
      -1.0764265568579474e+000 -9.4604143386539191e-002
      6.0744556077054306e-002 -3.3264590801870525e-002
      -6.2767722623693040e-002 -7.6916234563740027e-002
      2.2457876457777379e-001 -2.3939675888482066e-002
      3.8245629931801653e-002 2.4045022819244800e-002
      9.9510035146462700e-002 2.9456054130774081e-002
      7.4571770599320464e-002 -7.2229143483890049e-002
      -8.3151005671126529e-002 4.9154951527325727e-002
      -1.7222458570433065e-002 -1.2967342936759196e-001
      -1.1565366163917060e-001 7.8966828856311386e-002
      3.7771225517685991e+000 -1.6926413476974281e-001
      1.1997923574736832e-001 -4.9726965618351104e-001
      2.0071094098965953e-001 -5.3334941474479446e-002
      4.6918085017618172e-001 -5.3986720527720178e-001
      7.4916555219522507e-002 -2.9671888669824587e-001
      3.3226345559341913e-001 1.0638627773394484e-001
      2.4733985966370725e-001 -1.2534182875175015e-001
      1.8951195182319255e-001 -5.4363147547743707e-001
      -2.7233259938299403e-001 4.0139978733165715e-001
      -7.3435568699594625e-002 8.6269955955576599e-002
      8.8541915811600358e+000 2.8557075603689597e-001
      -3.4674734867445334e-001 -3.8644714081323084e-001
      -4.2594421386261955e-001 -3.7995009735231533e-001
      -1.9246951359537076e-001 4.0725199687274005e-001
      8.3494971831489725e-002 -2.0057646987154704e-001
      7.1575175937061608e-001 6.0624625549645739e-001
      1.1841683095597675e+000 -2.5878312431720785e-001
      1.1496534134558145e+000 -1.2852534456529829e+000
      -1.0825859961383979e+000 -2.3401456057512249e-001
      3.3529323316744536e-001 -8.4492061019119186e-002
      8.5616632435752429e+000 -2.8522722931239325e-001
      -4.9777602881710842e-001 -1.7597087889117860e-001
      -2.7745573585901856e-001 1.1867831152261608e-001
      6.4154615644334521e-003 -1.7575025178456913e+000
      5.7604292159215698e-002 -1.1694968919586141e-001
      6.3036526174019933e-002 -5.0221325212285672e-001
      4.9751393903010221e-001 2.4957281083617419e-001
      1.7351193143470889e+000 2.8069453260705472e-002
      -6.6351234445868357e-001 -5.4991809575068273e-001
      -6.9271186018720621e-001 8.4179263212485089e-001
      8.5149777719460875e+000 -7.6622065604106193e-001
      3.0179492350139470e-001 -1.7551612214408208e-001
      -3.6295649858778589e-001 1.4526382652263505e+000
      -6.4959597137194305e-002 -8.5471808359439216e-001
      4.1088798201343574e-001 1.7912952560722328e-001
      -8.3927201872312573e-001 -4.7039488150425113e-001
      -4.4517288256871640e-001 -4.0924042304547903e-001
      -2.3562181865605369e-001 -1.0272978143031606e+000
      -3.2435944996702493e-001 -7.3300869604047814e-001
      9.2181211700174737e-002 4.9484728502203323e-001
